,0,1,2,3,4,5,6,7,8,9,10,11,12,13,14,15,16,17,18,19,20,21,22,23,24,25,26,27,28,29,30,31,32,33,34,35,36,37,38,39,40,41,42,43,44,45,46,47,48,49,50,51,52,53,54,55,56,57,58,59,60,61,62,63,64,65,66,67,68,69,70,71,72,73,74,75,76,77,78,79,80,81,82,83,84,85,86,87,88,89,90,91,92,93,94,95,96,97,98,99,100,101,102,103,104,105,106,107,108,109,110,111,112,113,114,115,116,117,118,119,120,121,122,123,124,125,126,127,128,129,130,131,132,133,134,135,136,137,138,139,140,141,142,143,144,145,146,147,148,149,150,151,152,153,154,155,156,157,158,159,160,161,162,163,164,165,166,167,168,169,170,171,172,173,174,175,176,177,178,179,180,181,182,183,184,185,186,187,188,189,190,191,192,193,194,195,196,197,198,199,200,201,202,203,204,205,206,207,208,209,210,211,212,213,214,215,216,217,218,219,220,221,222,223,224,225,226,227,228,229,230,231,232,233,234,235,236,237,238,239,240,241,242,243,244,245,246,247,248,249,250,251,252,253,254,255,256,257,258,259,260,261,262,263,264,265,266,267,268,269,270,271,272,273,274,275,276,277,278,279,280,281,282,283,284,285,286,287,288,289,290,291,292,293,294,295,296,297,298,299,300,301
Facebook,-0.040208,0.45172,-0.293,0.43092,-0.0095025,-0.11083,0.40694,-0.50672,0.29662,1.0715,-1.2411,-0.033061,-0.36393,-0.11479,-0.25867,0.31193,-0.46345,0.89279,-0.35262,0.36238,0.051563,0.63774,-0.11584,-0.14786,0.18069,0.13066,-0.14835,0.30368,0.048362,0.03512,0.94239,-0.13421,0.066475,0.068271,-0.58851,-0.17054,-0.50741,0.10769,-0.32255,-0.37726,-0.59285,-0.38139,0.27594,0.30271,-0.053278,0.27368,-0.28448,-0.1532,0.24631,-0.022034,-0.27442,0.21426,0.12086,-0.67246,-0.70645,-0.48455,-0.38587,0.1253,0.32639,0.42798,-0.29256,0.34077,0.18941,-0.070367,0.50976,-0.56903,-0.27402,-0.45052,0.30283,0.098248,0.028658,-0.025134,0.595,-0.14705,0.59954,-0.071422,0.52086,0.065989,0.54677,0.39859,0.28636,0.28156,-0.30862,-0.056089,0.5495,0.31555,0.38705,-0.49984,0.35943,-0.40998,0.31044,-0.074205,-0.35329,-0.082788,0.25949,0.46937,-0.42727,0.5065,-0.051657,0.12165,0.13498,-0.22737,0.11826,0.41451,0.17532,0.15864,0.1614,0.34782,0.084805,0.30521,-0.42529,-0.28199,0.13583,-0.076556,-0.153,-0.3762,0.15103,0.085879,-0.58453,0.33132,-0.26514,0.094892,0.27736,-0.41931,0.53608,0.23317,-0.070557,-0.08235,0.29513,0.16184,-0.40136,-0.52189,-0.13824,-0.22709,-0.20596,-0.62187,-0.33203,-0.26844,-0.64784,-0.33136,-2.0425,-0.17468,0.060906,0.27024,0.011591,-0.12793,0.27019,0.04982,-1.1911,0.17742,0.94798,0.082096,-0.065339,0.073712,0.083521,0.56813,0.20283,0.013995,0.32589,-0.33672,0.16849,-0.074231,-0.25572,0.0033443,-0.2921,-0.1543,-0.12133,-0.030793,-0.22019,0.037791,-0.16999,0.16847,0.52977,0.35067,0.1032,0.17764,-0.124,-0.052373,0.35844,0.084172,0.15397,-0.070376,0.22477,-0.036192,0.40441,0.067439,-0.52518,-0.35627,-0.062311,-0.60946,0.27385,-0.40908,-0.36445,0.16462,0.50128,0.38796,0.28858,-0.24045,0.58643,0.26648,0.079587,-0.33135,0.10878,0.049555,-0.07707,-0.43013,0.14267,0.19713,-0.21349,-0.57323,-0.47313,0.067642,-0.1296,0.48991,-0.33174,0.0074987,0.40583,-0.45282,-0.82316,0.24975,0.024184,0.24096,-0.28716,0.31768,-0.19978,-0.22451,-0.1179,-0.15092,-0.27011,-0.31616,-0.042933,-0.056863,0.043857,-0.32287,0.078086,-0.44074,-0.41485,0.13788,0.40076,0.029359,0.0069109,-0.24682,0.17942,-0.019505,0.33459,-0.38617,0.15169,0.477,-0.051586,-0.1176,-0.0087784,-0.41849,-0.40871,-0.33359,-0.032145,-0.31819,-0.8654,0.16694,-0.37925,-0.82204,0.69146,0.1324,0.17669,-0.26028,0.14805,-0.19672,-0.064073,0.099072,0.66072,0.041769,-0.66734,-0.072698,0.10475,0.60805,0.18929,-0.19129,-0.63454,-0.48311,0.12869,0.066076,-0.21339,0.22583,0.34755,0.17862,0.27708,0.12599,0.075206,0.13223,-0.024557,-0.21074,-0.34584,0.17672,0.59915,0.20234,0.6172,-0.052586,0.094889,-0.3472,-0.4818,0.68565,11,8621
Varian,0.29345,0.22605,0.14518,0.58848,0.075919,-0.7002,-0.0040068,-0.51105,0.55076,-1.5867,0.35582,0.072003,0.50312,0.37917,-0.54875,0.68349,0.41833,-0.47599,-0.44905,0.077622,-0.20734,0.20842,-0.22167,0.49925,-0.3765,0.18564,-0.31049,0.0028731,-0.096658,0.38894,0.068466,-0.53653,0.76348,-0.032493,-0.49229,-0.15825,-0.12355,0.057001,0.28973,0.58917,-0.57707,-0.44447,0.070757,0.042327,0.68379,0.3513,0.0055053,-0.40378,0.032959,0.29392,-0.053717,-0.34084,0.50748,0.63678,-0.5352,-0.2069,-0.27672,0.79012,-0.50489,0.020202,-0.28908,0.0056703,-0.38291,-0.47111,0.23966,0.47072,0.44105,-0.44974,-0.25869,-0.080602,0.27963,-0.0033035,-0.24516,0.15254,0.045013,-0.35543,-0.38664,-0.16173,0.39509,0.057498,-0.77527,-0.033573,0.41551,0.25288,-0.021145,0.63188,0.81554,-0.57671,-0.9536,-0.34294,-0.0082358,-0.052702,0.12777,-0.31939,0.52098,-0.011437,-0.20076,-0.36492,-0.22549,-0.23125,-0.019757,-0.52942,0.20869,0.40988,-0.078489,-1.3854,-0.32195,-0.21334,-0.36826,-0.10568,0.38027,0.45217,-0.54747,0.030969,-0.92671,-0.37385,0.066551,0.053737,0.70476,-0.020257,0.48797,0.19038,0.10761,0.024467,0.22801,-0.6473,0.50262,0.2625,0.5703,-0.52825,-0.47517,0.12299,-0.042349,-0.44148,-0.38905,0.42982,-0.29579,0.22269,0.22198,-0.38585,0.37511,-0.35744,-0.52226,0.59702,-0.51784,-0.21479,0.28378,-0.11211,-0.16586,-0.28497,0.51693,-0.29182,0.76455,0.26348,0.27918,-0.41017,-0.29676,-0.26486,0.6594,-0.12572,0.30772,0.56797,0.25936,0.9623,0.84378,0.14136,-0.12685,0.052278,-0.44304,-0.099087,-0.61637,0.24802,0.01993,-0.32403,-0.34745,-0.68425,-0.21947,-0.10155,0.1274,0.8165,0.4346,-0.4313,0.37218,-0.41772,-0.16497,-0.54722,0.17744,-0.13387,-0.10257,0.45595,-0.30945,-0.71985,-0.2734,-0.31091,0.20412,0.4246,0.37864,0.34682,0.1287,-0.57106,-0.056686,0.18912,0.61722,-0.088439,-0.41266,-0.43367,0.051613,0.30096,0.23001,0.33473,-0.54719,-0.441,0.26188,0.21379,0.03604,-0.65644,0.35041,0.31754,0.71776,-0.53451,-0.64819,0.35798,0.0872,0.084084,-0.24828,0.4126,-0.47425,-0.14352,-0.23347,-0.67631,0.029184,-0.66473,0.22773,-0.68566,-0.42954,-0.068036,0.26893,0.091128,0.10911,-0.016033,0.13364,-0.26905,-0.48745,0.07738,-0.23169,-0.22568,0.10173,0.50456,0.60307,-0.19864,0.097123,-0.18697,-0.078209,0.31531,0.18821,-0.55505,-0.02523,0.11193,-0.097115,-0.2907,0.027391,0.48148,-0.21067,-0.052174,-0.37143,0.27876,-0.30901,0.40372,-0.61396,0.60175,-0.39034,-0.78747,0.49239,0.26578,-0.19973,-0.16548,-0.61696,-0.2664,0.05512,0.23577,-0.22861,0.071548,-0.24651,-0.092504,-0.37424,0.25557,-0.421,-0.19203,-0.70345,0.016815,-0.084799,-0.25731,0.3991,-0.29457,0.75516,0.038374,-0.20977,0.66269,-0.48029,0.31603,6,338
Allergan,0.6838,0.29279,0.065342,0.28826,-0.10174,-0.245,-0.14432,-0.019873,0.28619,-1.4096,0.13837,-0.44181,-0.15952,-0.071376,0.59562,0.59077,0.3128,-1.0488,-0.080251,-0.36416,-0.067272,0.84096,0.011905,-0.97875,-0.51617,-0.12913,0.52032,0.41157,0.22743,0.81125,0.104,-0.2219,-0.27116,-0.77408,-0.1102,-0.39924,0.54592,0.62879,-0.018802,0.063428,-0.10618,-0.21088,-0.030311,0.54413,-0.51564,-0.45657,0.22675,0.43227,0.27818,0.5652,-0.042895,-0.32249,-0.22259,0.38385,-1.3224,-0.19654,-0.091592,-0.26825,0.089673,0.1248,-0.22156,-0.96572,0.58363,-0.10077,-0.077817,0.15746,-0.31135,-0.42319,-0.16996,0.24172,-0.33,0.21953,-0.99942,-0.031713,0.38595,-0.51769,0.0046787,0.49529,0.56816,-0.2352,0.59171,0.55301,-0.13974,0.21302,0.26284,-0.53432,1.2451,-0.36995,0.035421,-0.16398,-0.33101,-0.1627,-0.46774,-0.99621,-0.11191,0.26258,0.18414,-0.08329,0.079269,-0.40293,0.71865,0.96927,0.23621,-0.17493,1.5688,-1.566,0.64669,-0.18741,-0.2163,-0.17069,-0.5021,0.56934,0.19105,0.053108,-0.54265,-0.23639,0.47865,-0.11365,0.40155,0.01819,-0.063311,-0.090223,-0.11405,0.069999,-0.21379,-0.080107,0.39982,-0.15938,-0.74298,0.47777,-0.19061,-0.67162,-0.20543,0.71646,0.42122,-0.90109,0.13721,-0.061118,0.24374,0.53026,0.43364,0.12157,0.069381,0.12756,-0.033374,0.17853,0.7814,0.3136,-0.27101,0.75444,0.61588,-0.09996,-0.25414,-0.12115,-0.27821,-0.005288,0.63575,-0.21818,-0.51191,0.047694,-0.15718,-0.16857,0.65573,0.079958,0.82927,0.74035,-0.58606,0.13016,0.097794,-0.54214,0.48121,-0.61338,0.42946,0.70981,0.41382,0.0042143,0.21163,-0.53353,-0.60813,0.28671,-0.54373,-0.22599,0.37793,0.01059,0.67469,-0.34415,0.14682,-0.11211,-0.20485,0.17501,-0.59296,-0.19875,0.1266,-0.33399,0.27442,-0.52967,1.1871,0.095894,0.79258,-0.56595,0.44271,0.17929,-0.20091,-0.35992,-0.48144,0.18064,-0.39399,0.26962,-0.43625,0.36363,-0.55705,0.90049,-0.1445,0.01806,-0.33117,-0.781,0.41675,-0.27035,-0.054359,0.28319,-0.70783,0.18774,-0.00081399,1.2,-0.30003,0.56149,-0.46914,0.089029,-0.073371,-0.39771,0.62405,-0.46405,-0.13626,-0.94031,0.25084,0.33099,0.74758,0.070872,-0.40529,0.042869,-0.21236,0.44331,-0.34305,0.42286,-0.027923,0.073558,0.81519,1.1248,-0.26297,0.031975,0.85804,-1.0892,-0.40474,-0.38626,1.087,-1.2265,-0.32052,0.53705,-0.76052,-0.22984,0.40964,-0.52907,0.23421,-0.59163,0.66597,0.31237,0.019083,0.011722,-0.32469,-0.29117,0.026311,0.034451,0.053818,1.0167,-0.16708,0.38423,0.27099,0.056362,0.47304,-0.42399,-1.0382,-0.333,0.2913,0.46871,0.026075,-0.45901,-0.24961,-0.056438,-0.078681,0.30931,0.14072,1.153,0.029328,-0.53555,-0.66531,-0.74279,-0.57887,-0.1645,-0.039523,0.085159,6,363
Nucor,0.3172,0.24979,0.64443,-0.86224,-0.65838,-0.1493,-0.48166,0.58313,-0.66452,-1.5029,-0.00075872,-0.53116,-0.22112,-0.10785,0.59942,0.27725,1.0649,-0.745,-0.19239,-0.61062,0.031529,-0.050179,0.34937,-0.72579,-0.10317,0.39123,1.3289,-0.58737,-0.33058,0.5861,0.23939,-0.61219,-0.529,-0.048911,-0.051724,0.69607,0.67421,0.4131,-0.42334,-6.4176e-05,-0.46061,0.024504,-0.57543,0.1935,-0.025722,-0.29373,0.042447,-0.47323,-0.13851,-0.4884,0.25684,-0.053809,-0.1849,0.39247,0.066198,-0.41775,-0.034345,-0.56315,0.22974,0.53496,-0.073106,-0.50781,0.44797,-0.67172,-0.17014,0.24505,-0.18172,-0.065244,-0.42876,0.54945,-0.61616,0.020709,-0.16106,0.11733,-0.13412,0.003473,-0.69587,-0.16542,0.32538,-0.18888,0.0021637,-1.0105,0.66682,0.016035,-0.22072,0.94714,0.79873,0.42715,-0.73831,-0.28984,0.46729,-0.46632,0.26104,0.26081,-0.17767,0.12896,0.33518,-0.0030133,0.14052,0.42778,0.502,-0.27362,0.74061,0.30004,-0.40606,-1.1215,1.3071,-0.5242,-0.53235,-0.43878,0.41245,0.3605,0.17749,0.073017,-0.38573,0.59528,0.39691,-0.64766,-0.59859,0.62104,0.5448,0.22925,0.13032,-0.012496,0.025958,0.15858,0.11877,0.023797,0.27922,-0.29527,-1.065,-0.66639,-0.076213,-0.58463,0.012932,-0.063487,-0.799,-0.36711,-0.35013,-0.69133,0.89328,-0.4128,-0.057471,-0.33263,-0.48785,0.57577,0.21713,0.11675,1.0393,0.040172,0.4305,0.071891,0.11389,-0.29723,0.073495,0.48866,0.060577,0.19817,0.71788,-0.043275,0.57551,0.17161,-0.31882,0.30255,-0.11302,-0.1557,0.6362,-0.69642,-0.93228,-0.69172,0.12953,0.32824,0.060258,0.26342,-0.080391,-0.61987,0.15406,0.011986,-0.13069,-0.27275,0.56012,0.45334,0.38589,0.72038,-0.44813,0.95252,-0.40806,-0.50172,0.036546,-0.090077,0.5065,-0.44652,-0.067161,0.20647,-0.34267,-0.23957,-0.17561,0.48354,0.46472,-0.4521,0.1675,0.2699,-0.70975,-0.040003,-0.39165,-0.14882,-0.56575,0.73854,0.36221,0.068319,0.19969,1.0186,-0.75985,0.72899,-0.043158,-0.68638,0.24404,0.0072709,0.13149,0.31917,-0.43852,-0.31462,-0.021433,0.66072,0.22477,-0.36387,-0.68514,-0.23348,-0.088357,-0.86666,-0.029637,0.038772,-0.47905,-0.46972,-0.87821,0.28327,0.43045,0.036695,-0.32165,-0.11315,0.52747,0.71307,0.047982,-0.4326,0.15442,0.1073,0.61326,0.3911,0.66411,-0.013711,-0.2647,0.8295,-0.34858,-0.26694,-0.22268,-1.2117,-0.057877,0.025165,0.044668,0.38373,0.16229,-0.028971,-0.75115,0.17208,-0.23398,0.20325,-1.0072,0.4381,-1.0407,0.66833,-0.27416,-0.94292,0.53904,0.51519,-0.42758,0.39584,-0.14789,-0.45352,0.020256,-0.69083,-1.0272,0.1399,-1.2397,-0.0037466,0.39479,0.80297,-0.083886,0.19404,-0.47959,-0.28441,0.59832,0.37725,0.28257,-0.096784,0.23995,0.029166,-0.21789,0.34788,-1.1831,-0.38308,7,98
Ventas,0.028289,-0.25496,-0.040969,-0.10904,0.79244,0.059963,0.46969,0.023215,-0.11599,-1.3755,-0.63612,-0.37073,-0.85149,-0.23927,0.54336,-0.22476,-0.067154,-0.72211,0.76591,0.21418,0.45517,0.74684,-0.10561,0.11564,-0.3383,0.037948,-0.3571,0.077657,0.30057,0.11435,0.39246,-0.77002,0.43355,0.41304,-0.51858,0.29783,0.24516,-0.076374,-0.12066,0.041946,-0.83049,-0.29815,0.011956,0.34851,0.097826,0.17581,-0.50706,-0.12002,0.76084,0.59685,0.16316,-0.064355,0.28048,0.30083,0.0021354,0.11759,0.12694,0.15257,0.47937,0.51178,0.7305,0.28148,-0.25051,0.68579,0.14022,0.3108,0.46866,-0.47047,0.34038,-0.22779,-0.038872,0.13449,-0.92106,-0.0049647,-0.48673,-0.2228,0.25243,-0.43011,0.23842,0.37916,0.22673,-0.04773,0.26481,0.0037436,-0.43116,0.82014,0.68135,-0.35446,-0.6178,-0.010339,0.58753,-0.62309,0.90564,0.099712,-0.24347,0.62295,0.29095,-0.075209,-0.22555,-0.36234,-0.91838,-0.068034,0.43075,0.097995,0.42278,-0.89462,0.096921,-0.21048,-0.0051556,-0.012337,-0.044418,-0.52511,-0.32986,0.16914,0.47119,-0.1588,0.50213,-0.87228,-0.1058,0.14288,-0.24834,-0.4128,-0.069691,0.66179,-0.50385,-0.35545,0.5676,0.23615,0.39776,0.066615,-0.14525,0.12609,-0.0005715,-0.26512,0.13152,0.60642,-0.59491,-0.1256,-0.29987,-0.34439,0.25704,-0.74797,-0.069514,-0.23534,-0.54295,-0.037699,0.97433,-0.49648,0.17086,0.014033,0.54767,-1.1299,-0.0008727,0.0037452,-0.27957,0.14648,-0.42726,0.52695,0.087102,-0.16975,0.28139,0.10066,0.24547,-0.25631,0.41422,0.54394,-1.0914,0.020892,-0.1933,-0.13754,-0.13561,0.20635,0.072865,0.94639,0.17492,0.69153,0.22396,0.33227,-0.51398,0.033798,0.17737,-0.284,0.2829,-0.40421,-0.12932,-0.29232,1.0177,0.12112,0.72604,-0.098925,0.51825,-0.60832,0.3669,-0.017448,-0.34404,-0.57303,0.54829,-0.52792,0.092828,-0.081665,0.63352,0.11198,0.46166,-0.35622,-0.79216,-0.22099,0.30401,0.55892,-0.090848,0.10817,-0.16362,-0.27551,0.28356,0.45766,0.16249,-0.58213,0.64319,0.13358,-0.081313,0.13517,-0.12684,-0.4195,-0.33262,0.31474,0.22467,0.14632,-0.025111,0.076574,-0.63,0.13305,-0.39217,-0.071162,-0.058174,-0.41196,-0.7595,0.28788,0.25877,-0.27628,0.40511,-0.026393,0.1301,-0.50907,-0.27356,-0.17378,-0.34169,-0.27409,0.42333,0.3271,0.82215,-0.60278,0.010615,-0.019735,0.15088,0.49211,0.061992,-0.18079,0.16666,-0.51366,0.13098,-0.10068,0.17392,0.24403,-0.92853,-0.10382,0.003512,-0.12054,0.31857,-0.47682,-0.81708,-0.1034,-0.73987,-0.33302,-0.50617,0.51602,0.44717,-0.046441,-0.048875,-0.56343,0.24467,0.17357,-0.71488,-0.21915,-0.38038,0.30241,-0.57209,0.14092,-0.12526,-0.66282,-0.35921,0.14193,0.40652,0.2975,0.263,0.083026,0.11912,0.33498,0.18473,-0.25284,-0.38213,0.069614,8,46
IBM,-0.18684,0.19252,0.24139,-0.17411,0.12174,-0.0087396,-0.37784,0.076431,1.0594,-0.69566,0.428,-0.95863,-0.47015,0.15141,0.057812,0.10931,-0.65782,1.8808,-0.2124,-0.065753,0.67941,-0.28756,0.26277,-0.26587,-0.14315,-0.1207,-0.57006,0.037461,0.2635,0.60835,-0.70878,-0.57989,-0.12768,0.69531,-0.47016,0.39192,-0.062327,-0.090334,-0.46489,-0.34922,-0.34231,0.36028,0.38011,0.38143,-0.72365,-0.27988,-0.50288,-0.35366,0.49946,0.42798,0.049491,-0.42903,0.14903,-0.3637,-0.10171,-0.28874,-0.23801,-0.094022,-0.21236,-0.52178,-1.158,-0.73198,0.47095,-0.48921,0.53274,0.58024,0.098232,0.66615,-0.10008,-0.011979,0.4224,-0.45554,0.47756,0.25897,0.26504,-0.21674,0.13619,0.034075,0.39865,0.26498,-0.13531,0.34561,0.57909,0.34823,-0.32752,0.049409,0.91012,0.17455,0.65931,-0.21095,-0.43995,-0.69663,-0.11508,-0.18687,0.14971,-0.30191,-0.19393,-0.33215,0.27942,0.31309,0.060287,-0.38533,0.25925,0.4142,-0.0054473,-1.8606,0.10628,0.76043,-0.17389,-0.21085,0.44235,0.71685,-0.25797,-0.29463,-0.30894,-0.42231,0.33281,-0.3647,-0.42491,0.079527,-0.093147,0.1659,-0.24833,-0.70233,-0.6797,0.79817,-0.078226,0.70004,0.18125,-0.15029,0.44246,0.13569,-0.5475,-0.48022,-0.86465,-0.61814,0.24054,0.60103,0.10804,-0.59165,-0.35943,-0.53455,-0.11511,-0.2317,0.75639,0.33738,0.79461,0.31314,-0.16046,-0.51244,0.78636,-0.18355,0.85773,-0.033408,-0.096141,-0.013221,-0.20075,0.23067,-0.072675,0.046001,0.067062,0.20659,0.72571,-0.0097882,-0.49802,-0.14106,0.0068959,-0.43915,-0.39517,-0.1151,0.05358,0.32515,-0.75863,-0.0565,-0.17954,0.1433,0.0042209,0.74667,-0.24782,0.37871,-0.18026,-0.40595,0.31789,-0.23358,0.49237,-0.15339,-0.63208,0.42766,0.47047,0.01619,-0.26903,-0.12572,-0.28839,0.076701,-0.054648,-0.60796,0.95914,-0.28662,0.22329,-0.49334,-0.042519,-0.21992,-0.13843,0.41244,-0.55732,-0.52958,-0.24035,-0.15348,0.35189,0.17112,0.013284,0.021167,0.22121,-0.029455,0.17279,0.14554,-0.25712,-0.057627,-0.12916,-0.030612,-0.54995,0.34357,0.0012514,0.95595,-0.54136,-0.23232,0.95769,-0.39487,-0.45463,-0.22303,-0.26101,-0.17845,0.73631,-0.16418,-0.080139,-0.065581,-0.016358,-0.28367,-0.83645,0.032394,0.75721,-0.77381,-0.26283,-0.21464,0.22207,-0.41207,0.82782,-0.27593,-0.036413,-0.33204,0.20485,0.38345,-0.72444,-0.042614,0.59512,-1.3487,-0.92829,0.16824,-0.083733,-0.097507,0.39068,-0.18596,0.21926,0.13367,-0.8961,-0.71688,-0.67051,0.28115,-0.25307,-0.11209,-1.1209,0.011981,-0.034854,0.5897,0.20332,0.20318,0.11793,-0.57257,-0.27469,-0.62444,-0.25461,0.33365,0.66882,0.07075,0.20606,0.22166,0.43243,-0.18758,-0.17555,-0.32286,0.15884,-0.35799,0.28478,0.33288,-0.19574,0.14879,-0.34095,0.62298,-0.69022,0.0037067,11,10967
Amphenol,1.2346,0.66167,0.35733,1.141,0.78057,0.033712,0.13428,0.72784,0.2251,-1.6238,1.3337,-0.95318,-0.57134,0.75956,0.12765,-0.12472,0.36641,-0.90455,0.045895,0.62017,0.61534,0.98041,-0.33597,0.6967,-0.084879,-0.40846,-0.12037,0.17111,0.41028,0.90722,0.2918,0.046855,0.17993,-0.12729,0.080472,0.74223,0.18489,-0.20544,-0.44885,-1.4876,-0.041258,-0.57234,0.29113,-0.61887,0.50706,-0.27578,0.028363,-0.60041,-0.93227,0.57593,-0.10315,-0.177,0.28095,-0.45278,-0.5846,0.25841,0.51234,-0.31462,-0.31706,-0.24831,-0.45607,0.062683,0.40832,0.069464,0.42189,0.051102,-0.21189,0.17981,-0.68661,0.41443,0.17402,0.34731,-0.092098,0.53105,-0.3198,0.64277,-0.71919,-0.68161,0.015784,-0.55192,0.22411,-0.18765,0.22756,-0.53585,-0.42829,0.060459,1.5566,0.51658,0.58677,-0.044646,-0.28996,-0.41156,0.64383,-0.58787,0.14279,0.20328,0.77344,-0.69186,-0.14242,-0.63996,0.7063,0.19916,-0.44651,0.48881,-0.71267,-1.4662,0.38289,-0.098274,0.98902,0.28417,-0.072493,0.48441,-0.93101,-0.09031,-0.2712,1.0248,0.075286,-0.08584,0.38687,0.19601,0.65085,-0.24212,-0.20375,-0.15357,0.20798,0.81647,0.11616,1.0063,1.2896,-0.025582,-0.053225,0.47303,-0.18253,-0.52155,-0.17871,0.036405,-0.60923,0.16924,0.10965,-0.47126,0.11028,0.27457,-0.68033,-0.35171,-0.27615,0.03997,0.080292,-0.78753,0.5607,-0.83089,-0.78811,0.097802,-0.68358,-0.14161,-0.5311,0.49004,0.18564,-0.70422,0.61924,0.98592,-0.51143,0.19562,0.61003,0.14363,-0.15131,-0.17965,-0.75822,1.0568,-0.58774,0.44342,-0.30396,-0.15812,0.62396,0.12573,-0.49323,0.0064897,0.33822,-0.23835,-0.53611,1.3518,-0.78137,-0.20908,0.1406,-0.69799,-0.46646,-0.46482,0.080713,-1.5112,0.7739,1.3466,0.14585,0.23449,0.66457,-0.57764,-0.011725,0.48371,-0.0067211,-0.34043,0.72778,-1.466,-0.46365,0.021914,0.38902,-0.59735,0.037423,-0.4079,0.060068,0.22903,-0.57425,0.43305,-0.48932,-0.11201,-0.29746,-0.72906,-0.28453,0.012931,0.30333,0.48253,-0.46289,0.59492,-0.11403,-0.2458,0.57079,0.691,0.31098,-0.32742,-0.027793,-0.29487,-0.34124,-0.22705,0.20794,0.099627,0.22587,-0.44337,0.54046,0.72279,0.11058,-0.32772,-0.44761,0.76275,0.44891,-0.77712,0.10026,0.58108,0.20306,0.16802,0.10255,0.25938,1.2208,-0.53388,0.41593,0.45467,0.93567,0.21195,-0.050511,-1.0984,-0.061307,0.094254,-0.5922,-0.49432,-0.40275,-0.025918,-0.42687,0.32255,-0.065932,0.59266,-0.25678,0.22979,0.074413,-0.37728,-1.2782,0.81572,-0.63534,0.64471,0.80706,-0.30174,-0.40909,0.34614,-0.61804,-0.5686,-0.79188,-0.10116,0.37316,1.2906,0.44331,-0.24406,-0.82855,-0.036931,-0.28087,0.62326,0.47319,0.25938,-0.88157,0.76154,-0.1345,0.15162,0.66116,0.58907,-0.47182,0.090192,11,64
Cadence,0.0022313,1.0753,-0.27026,-0.2592,0.16199,0.1498,0.077073,0.26806,0.11551,-0.25515,0.54144,0.37875,0.1238,0.10926,0.044305,0.55981,0.38157,0.54861,-0.87298,-0.53774,-0.26786,0.22692,0.25703,-0.77082,-0.60259,-0.27865,-0.54913,0.0044983,0.21621,0.08247,-0.019995,0.179,-0.2384,0.030863,-0.3517,0.0062531,-0.34728,-0.076848,0.040236,-0.2524,-0.26151,-0.091778,0.14236,-0.26527,1.0608,0.087429,0.2615,0.07052,-0.55737,0.5061,-0.23097,-0.44429,-0.33454,0.021127,0.1274,0.27633,-0.44296,-0.0048298,-0.10661,-0.41873,0.039226,0.47937,-0.36238,0.45771,-0.40209,-0.13496,0.07265,0.43145,-0.32946,0.63228,-0.43593,-0.37641,-0.25925,0.073983,-0.067,-0.69551,-0.22158,0.42027,-0.30652,-0.26968,0.42967,-0.59819,0.11645,0.15528,0.16332,0.84394,0.20102,0.030727,0.69152,0.26995,-0.29494,0.07834,-0.54976,0.050231,-0.13357,-0.68287,0.4618,-0.18998,0.28131,0.14103,-0.035791,-0.84117,-0.17682,-0.13414,0.15632,-1.7901,0.29644,0.079107,-0.17792,0.13866,0.20338,-0.17792,-0.20352,0.3397,0.32361,-0.069434,0.48495,-0.10888,-0.23355,0.32831,0.40503,-0.29179,0.15286,0.72783,-0.028334,0.28791,-0.10147,0.48132,0.15055,-0.51701,0.61345,-0.09228,0.33441,0.40328,-0.045885,-0.28228,0.2466,0.64969,-0.11915,-0.28394,-1.0621,0.17396,0.28522,0.6718,0.15566,0.60641,-0.010036,0.19026,-0.1342,0.82189,0.039243,-0.51161,0.39067,0.20325,0.0029455,-0.41786,0.41531,-0.38033,0.47906,-0.44697,0.12375,0.63129,0.21431,0.14151,-0.027977,-0.182,-0.017112,0.21048,-0.71436,0.09902,0.24033,-0.20423,0.53111,-0.45581,0.083472,-0.020377,0.16649,-0.96235,-0.27005,0.49552,0.091825,-0.49463,0.077067,0.11227,0.084055,0.87514,-0.099528,0.29941,0.38823,-0.28815,-0.030877,-0.20529,-0.012905,-0.0097344,-0.61778,-0.11095,-0.018662,-0.36575,-0.35417,0.10051,-0.084101,0.24725,0.14398,-0.094283,-0.87918,-0.36436,0.34212,-0.034588,0.25464,-0.72686,-0.2066,-0.20064,0.29524,-0.33899,-0.34966,0.12065,0.22058,0.26742,0.10123,0.76388,0.64813,-0.16802,0.15726,0.11665,0.031458,0.21261,0.78452,-0.045466,0.33762,0.037426,0.11058,0.21213,0.075275,0.33584,-0.046375,-0.15655,-0.24022,-0.097448,-0.26802,0.3805,-0.82163,-0.46025,0.10744,0.0097699,-0.45227,0.36572,0.34147,-0.25821,0.52641,-0.2933,-0.2437,0.09655,-0.23995,0.48006,-0.706,0.02411,0.0059485,0.38588,-0.11018,-0.097726,0.054898,-0.21719,0.24745,-0.17844,0.59911,0.010032,0.20359,0.60681,0.38074,0.48455,0.089366,-0.16435,-0.40033,0.52442,-0.14849,-0.47245,0.22867,-0.21337,0.46631,0.00021111,-0.13867,0.22767,0.83968,-0.17899,-0.12476,-0.66172,-0.16246,-0.17851,0.48637,-0.20751,0.22737,-0.2197,0.31783,0.24247,-0.011884,0.212,0.28342,1.0446,-0.40117,-0.13428,11,248
Darden,-0.13309,0.47883,0.1415,-1.1203,0.25217,0.48904,-0.28958,0.38525,-0.37024,-1.0462,0.080434,0.17803,-0.41054,0.063539,0.60751,0.19345,-0.047681,-1.0695,0.79208,-0.10661,0.23847,0.57019,-0.16297,-0.15758,-0.35372,-0.51952,-0.67633,0.26233,-0.13652,0.27663,0.1701,-0.40888,-0.20726,-0.29473,-0.94529,-0.19785,0.46848,-0.23772,0.15599,0.43111,0.090963,-0.010712,0.14401,0.39606,0.26543,0.50377,0.37406,-0.2366,0.16543,-0.1153,0.51974,-0.47425,0.60133,0.028636,0.036801,0.15579,-0.17524,0.59425,0.02191,-0.023447,0.028094,-0.3089,-0.053391,-0.51735,0.59596,-0.079985,0.52371,0.21589,-0.1485,0.3939,-0.41892,0.046375,-0.0318,-0.09664,-0.1095,0.10808,-0.3545,0.15437,-0.32071,0.31137,-0.33487,0.0092949,0.78732,-0.062493,0.085755,0.36268,1.2593,-0.012414,-0.55815,-0.2259,0.08277,-0.64588,0.23938,-0.35761,0.91066,0.28559,-0.56165,0.2768,0.2326,-0.3072,-0.38382,-0.13755,0.4093,0.13809,-0.4765,-1.1007,0.46328,0.47687,-0.39473,-0.12553,0.16839,0.67796,-0.16362,-0.35192,-0.44988,0.123,0.60323,0.1707,0.18544,0.045562,0.58624,0.13509,-0.20115,0.05177,0.32822,-0.20851,-0.034745,-0.6949,0.66049,0.074048,-0.094261,0.12359,0.075247,-0.42564,-0.40749,-0.19336,-0.10361,-0.65207,-0.00026406,-0.28698,0.33546,-0.54,-0.86876,-0.15157,-0.17078,0.18578,0.7488,0.27975,-0.43622,0.26977,0.59349,-0.65841,0.070642,0.4534,-0.37801,-0.092042,-0.29931,0.4616,0.13751,-0.39592,0.092759,0.26643,0.15243,-0.050533,-0.064065,-0.048402,1.0554,0.45628,-0.22822,-0.50358,0.74163,-0.6988,0.53962,0.14637,-0.26673,-0.20395,0.58705,0.39044,-0.2563,-0.15287,-0.063383,0.39943,0.22238,-0.14046,-0.038246,0.38643,-0.43067,-0.25431,-0.0041981,-0.30119,-0.1302,0.38637,-0.68847,-0.29167,-0.19243,-0.29439,0.42032,0.52051,1.141,-0.26216,0.27477,-0.33947,-0.044104,0.31618,0.025597,-0.0095656,-0.0040121,0.1747,0.90253,-0.15419,-0.31311,0.74256,-0.72567,0.40554,-0.030186,-0.19479,0.30146,0.017371,0.56562,-0.010201,-0.061019,-0.031825,-0.59153,0.29111,-0.54306,-0.45718,-0.90309,-0.69863,-0.40984,-0.35361,-0.20202,0.28349,-0.20022,-0.093356,-0.1832,-0.60777,-0.15598,-0.30194,0.17378,0.75745,-0.04532,-0.62328,0.63922,-0.15751,-0.012625,-0.38238,-0.044665,-0.062306,0.33384,-0.14968,-0.30026,0.4111,-0.21887,-0.82577,-0.098347,-0.90889,-0.47023,-0.35459,0.096857,-0.10264,-0.63324,-0.64279,0.22077,0.51465,0.32613,0.31991,-0.33809,-0.38281,-1.4414,0.1799,-0.35025,0.10824,0.16546,-0.2705,0.56427,0.25077,0.19937,-0.47277,0.51639,-0.68692,-0.60182,-0.24285,-0.54986,0.24158,0.25382,0.22535,0.9576,0.24166,-0.065296,-0.33818,0.81877,0.17219,-0.33717,0.25846,0.080692,-0.28462,0.41205,0.53239,0.070819,0.30528,10,177
Anadarko,-0.067503,-0.35139,-0.18408,-0.17866,-0.22978,0.033223,-0.78575,-0.059933,0.071738,-1.6001,0.50215,-0.19871,-0.047159,0.95729,-0.099833,0.32538,0.24376,-1.3499,0.21441,0.47143,-0.49195,0.34107,0.55857,-0.18061,0.22132,0.0064299,0.50709,0.87453,-0.30581,0.21257,0.11211,-0.86179,0.67923,0.40164,-0.016825,-0.3456,-0.14073,-0.27001,0.5085,0.28891,0.23125,-0.078047,0.2942,0.39998,-0.10461,0.045109,-0.31498,-0.45818,0.052372,-0.10684,-0.023408,0.7115,0.1554,-0.432,-0.40179,-0.38446,-0.26042,-0.38029,0.45528,-0.15772,0.09565,-0.91201,0.47344,0.13388,-0.21925,0.10413,0.1253,-0.11962,0.44729,-0.067271,0.1332,-0.31452,0.024691,-0.080167,0.53248,0.62629,-0.094798,-0.20868,0.37555,0.46357,0.80093,0.27751,-0.1018,0.59352,0.0058661,0.13281,0.86878,0.64055,-0.3252,-0.61018,0.15889,-0.29272,-0.2906,-0.65788,0.25322,-0.014775,-0.4251,-0.31293,-0.52968,0.12004,-0.067965,0.19852,0.43774,0.18966,0.24639,-1.5575,0.3571,0.038843,-0.61814,0.011919,0.58796,0.81718,-0.59541,0.032481,-0.19441,0.56817,0.61227,-0.33664,-1.0111,-0.20405,-0.17656,0.18213,-0.17516,-0.078312,0.021607,0.66195,0.80849,0.035565,0.28629,-0.17599,-0.21448,-0.46334,-0.43988,0.14821,0.67268,0.31378,-0.18415,0.39386,0.14707,-0.19942,0.64323,0.0014805,-0.97612,-0.27539,-0.51386,0.52754,0.64058,0.33733,-0.044536,-0.19828,-0.096861,-0.060353,-0.67164,-0.4144,0.077382,0.30513,0.55584,-0.02557,-0.63579,0.69206,-0.088304,0.41369,0.30367,0.67364,-0.26166,0.46742,0.35658,0.1901,0.22127,-0.63449,-0.31659,0.34361,0.44916,0.08889,0.0032306,0.10893,0.50748,0.061776,-0.72234,0.3782,-1.0715,0.083053,-0.35044,-0.50922,0.49133,0.34962,-0.079777,-0.36573,-0.1457,-0.012781,0.41199,0.50952,0.86712,-0.7418,-0.47647,-0.27548,0.50507,-0.39225,0.29017,-0.44324,-0.18719,0.55248,-0.36602,-0.28199,-0.29161,0.021544,0.18596,0.89012,0.84939,-0.1571,-0.79309,0.36464,0.35393,1.0093,-0.47326,-0.10204,0.020397,-0.23031,0.51255,0.38087,-0.022231,-0.099668,-0.076567,-0.17562,0.10512,-0.21107,-0.63058,0.078879,0.0038133,-0.1196,0.63177,0.35709,-0.33506,-0.2365,-0.078393,-0.43617,0.57989,-0.2091,-0.31853,0.17492,0.63907,0.42398,0.52797,-0.19474,-0.43868,-0.044167,-0.25045,0.10855,0.5338,-0.47913,-0.18915,0.32434,-0.54756,0.35541,0.37598,-0.8824,-0.11212,0.46193,-0.65843,0.018714,0.00025518,-0.36533,-0.03943,-0.035609,0.34095,0.23957,0.13515,0.042956,-0.49288,-0.28207,-0.40452,0.20438,0.13936,0.93699,-0.32159,0.010177,0.56563,-0.087161,0.021127,-0.43893,-0.66029,-0.45134,-0.88421,0.00023296,-0.78264,0.72295,-0.060279,-0.42198,0.047763,0.31166,0.18273,0.052511,-0.55492,-0.697,-0.053267,-0.23008,-0.23961,0.021997,-0.76602,-0.21058,3,169
ANSYS,-0.56943,-0.15197,0.63023,0.64696,0.31992,0.44055,0.3798,0.24155,0.20081,-1.5442,1.222,-0.58638,-0.31218,0.38925,-0.28454,0.075273,0.19237,-0.071333,0.26351,-0.4102,-0.14605,-1.1121,0.53081,-0.24648,-0.76914,-0.19726,0.88397,0.020834,0.59071,0.11413,0.135,-1.2479,-0.51307,-0.10349,0.054041,0.14605,0.62615,-0.52997,-0.14831,-0.36916,-0.33449,-0.40801,0.19333,-1.1891,-0.35054,0.027381,0.341,-0.49367,0.18994,-0.20425,0.24178,-0.36704,-0.48748,0.27502,-0.51901,0.71605,-0.24164,0.75538,-0.60078,0.24579,0.77115,-0.51336,-0.11738,-0.88549,0.043669,-0.26796,0.36433,-0.46311,0.048109,-0.21668,0.2977,-0.61281,-0.3382,0.087527,-0.21856,0.75642,-0.68567,0.33488,-0.033396,-0.3517,-0.31323,-0.1491,0.88266,-0.32096,-0.51971,0.82499,1.1211,-0.29116,0.2134,0.047109,-0.064928,-0.20211,-0.58176,0.21353,-0.51776,0.83863,0.4479,0.64526,-0.27399,-0.51355,-0.33723,0.42774,0.15027,0.32317,0.24459,-1.4011,0.4624,0.056043,-0.35247,0.059268,-0.31895,-0.43527,-0.28089,0.048126,-0.56254,0.39128,0.39301,0.11899,-0.12408,-0.73941,-0.16473,0.27373,0.50106,-0.38732,-0.51737,0.38169,-0.59541,0.45296,0.10621,0.13764,0.63001,0.20715,0.15193,-0.44244,0.47899,0.23082,0.016761,0.91412,0.34567,-0.95362,0.67047,0.15579,-0.19688,-0.11482,0.1674,0.32578,0.086953,-0.23068,0.30527,-0.39132,0.821,0.17837,-1.1567,0.15697,0.64938,-0.36635,0.32848,0.090549,0.51898,0.13006,0.32086,-0.54926,-0.61493,0.52468,0.3032,0.15538,0.54651,0.0555,-0.57548,0.31457,0.26864,-0.3913,0.0013017,-0.36375,0.07401,0.4285,0.026646,0.1618,0.14031,-0.66617,-0.38136,0.49702,0.63803,-0.20072,0.35072,-0.084557,-0.0082199,-0.11979,0.53599,-0.32154,-0.33443,-0.057937,0.37091,-0.54066,0.28739,0.45829,0.77285,0.45851,0.85873,-0.096883,0.20169,0.18049,0.28867,0.27765,-0.50033,-0.087396,-0.372,-0.09195,-0.26716,-0.053962,-0.58979,-0.40055,0.31999,0.1713,0.14852,0.15668,-0.3387,-0.52915,-0.16964,0.81978,0.45463,-0.69741,0.083379,0.060077,-0.18942,-0.4723,0.16918,-0.39697,0.65852,-0.33198,-0.94327,-0.46397,-0.16758,-0.4882,-0.39356,-0.47313,-0.12729,0.12699,0.0070873,-0.11267,1.3339,-0.26566,-0.52391,-0.62982,-0.15485,-0.1228,0.16087,0.091536,0.78833,-0.1027,0.65706,0.27112,0.23912,0.087457,-0.27786,-1.4494,0.01901,0.65096,-0.20903,0.020266,0.62527,-0.17394,0.043051,-0.34166,0.79929,0.29363,0.27432,0.73228,-0.40752,-0.043733,-0.48198,0.52266,0.60769,0.30255,-0.42685,0.69934,-0.18364,-0.0020521,0.039682,0.20205,-0.36364,0.21249,-0.82308,-0.44005,-0.19173,-0.46627,-0.029607,-0.32723,-0.29957,-0.23811,0.74836,-0.059796,0.21188,0.38532,1.0943,-1.0815,-0.56427,0.40378,-0.16806,0.14687,11,198
Baxter,0.028744,0.41416,-0.077687,-0.33737,0.21937,0.30092,-0.35327,0.02281,-0.20827,-0.4305,0.21625,-0.63368,-0.041927,-0.37794,0.0077922,0.43592,0.32447,-0.13152,-0.39497,-0.046838,0.29676,0.15121,0.37592,0.19848,0.2669,-0.30112,-0.34943,0.12154,-0.17399,0.60937,-0.47863,0.60019,0.37808,0.11483,0.33454,-0.16112,-0.19575,0.059085,-0.44059,-0.019306,-0.034603,0.083081,0.29039,0.28678,0.027612,0.13399,0.1706,-0.54925,0.55848,0.0097275,-0.015028,0.18903,-0.48342,-0.22576,-0.26212,-0.10789,-0.051033,-0.0039013,-0.27542,-0.16271,-0.3922,-0.0958,0.31767,-0.20433,0.17466,0.084523,0.34336,-0.0070331,-0.065308,-0.079571,0.21031,-0.21085,-0.21273,0.046632,0.064432,-0.045777,-0.45365,-0.24563,-0.10746,-0.36461,0.55578,0.3089,0.14396,0.41937,-0.10599,-0.13339,1.99,-0.39397,-0.41202,-0.092962,-0.080923,0.052016,-0.35479,-1.1139,0.46423,0.22041,0.0084972,-0.34163,-0.36538,0.46805,0.53539,0.18733,-0.09793,0.34261,0.28139,-0.91957,0.41748,-0.40118,0.1522,-0.20826,0.11884,1.0062,0.18733,-0.16286,-0.27541,0.27287,1.0227,0.38682,0.23142,0.52416,0.019098,-0.10439,-0.20265,-0.058215,-0.16397,-0.33875,0.08928,0.20548,0.25757,0.025012,0.12133,-0.67969,0.34424,-0.44524,0.067933,-0.27451,-0.27478,-0.11602,-0.31713,-0.54504,-0.38037,-0.37101,-0.35633,-0.032363,-0.12739,0.25355,0.30415,0.047021,0.2736,-0.22339,0.14738,-0.54998,-0.19949,-0.43344,0.19954,-0.62635,-0.05356,-0.38763,-0.16721,0.11705,0.40901,-0.11928,-0.19856,0.47653,0.87694,0.36278,0.023494,0.60663,-0.42571,-0.10097,0.20523,0.52589,0.17422,0.16883,0.05451,-0.27028,-0.21432,0.31957,0.089483,0.77094,-0.20552,-0.069952,-0.1867,-0.028894,0.14318,0.28701,0.19734,0.074011,0.39587,-0.30654,-0.56798,0.34484,0.63542,0.00024422,0.12407,0.18187,-0.015825,0.12087,0.98624,-0.24984,0.40133,-0.32364,-0.0060664,-0.4039,-0.14096,0.4073,-0.33753,0.14523,0.032359,-0.02567,-0.1062,0.32701,0.2655,0.17371,-0.58082,-0.23916,0.37162,0.17708,0.6256,0.26463,-0.47738,0.21765,0.12709,0.10565,-0.2876,-0.043444,-0.24604,0.42498,-0.35795,0.08582,0.13786,0.093166,-0.22373,-0.13801,-0.21577,-0.63782,-0.41204,-0.19833,0.02272,-0.28206,-1.1361,-0.92251,0.089822,-0.10069,-0.32248,0.66206,-0.040617,0.24689,-0.089328,-0.50913,0.10195,-0.31015,-0.52644,0.27989,-0.10553,-0.79989,-0.40581,0.079932,-0.42108,-0.16185,-0.09365,-0.23066,-0.0012794,0.23277,0.14831,-0.35858,0.043758,0.090147,0.017074,-0.076561,-0.3692,0.1015,0.38958,0.78045,0.0764,0.26778,0.2593,-0.49932,-0.35299,-0.095903,-0.44687,0.12149,-0.39491,0.22169,-0.42666,0.26255,0.56824,-0.012532,-0.93241,-0.41464,0.50743,-0.25848,0.076107,0.2673,0.30754,-0.42281,0.26291,0.18881,-0.2997,-0.092581,6,519
Garmin,0.083325,0.52777,-0.14554,0.38819,0.65977,0.56227,-0.058211,-0.31363,0.46357,-0.73802,-0.12617,-0.01402,-0.11642,-0.52218,-0.29449,0.15762,-0.46506,1.229,0.43109,0.24531,0.30246,0.084146,0.78746,-0.93698,-0.19274,0.20081,-0.2059,0.046738,-0.14236,1.1649,0.01106,-0.312,0.31765,0.50632,-0.30789,-0.41942,0.033879,-0.051182,-0.10639,-0.39127,-0.35847,0.045018,0.43182,0.4846,0.44351,-0.20671,-0.22412,0.13694,-0.42188,0.023425,-0.41383,-0.17947,0.18588,-0.29937,-0.13921,0.0087772,-0.42064,-0.040865,0.13396,-0.016898,-0.015224,0.40968,-0.78451,0.078159,-0.02365,-0.54787,0.038811,0.6811,-0.50913,-0.19375,0.28731,-0.043264,-0.79576,0.57286,0.36184,-0.12147,0.27343,-0.33686,0.23686,0.82856,-0.07102,0.22487,0.27965,-0.12972,-0.040307,0.53795,1.1407,0.013128,0.99629,0.053353,-0.44885,-0.48284,-0.28095,0.21541,0.78425,-0.16449,0.36711,0.44769,0.35769,0.48658,-0.62408,-0.37581,-0.22612,-0.16978,-0.25347,-1.2801,-0.19833,0.5321,0.37145,0.1365,-0.34922,-0.16103,-0.066154,-0.14453,-0.11535,-0.25769,0.098136,-0.23102,-0.32849,-0.09015,0.13684,0.13105,0.90881,-0.76153,-0.15381,0.68261,0.096736,0.2273,0.78298,0.020277,0.3909,-0.64185,-0.03602,-0.40321,-0.13525,-0.15961,0.07704,-0.076973,-0.082978,-1.24,-1.1255,-0.14301,0.51142,-0.051762,0.14256,0.83124,0.18643,0.47415,-0.74232,0.077397,0.35561,-0.20347,0.010153,0.012269,-0.030986,-0.5565,-0.22437,0.32895,-0.22934,0.4519,0.59097,0.29526,0.28902,-0.15958,0.36409,-0.12088,-0.25732,-0.24114,-0.3462,0.72635,-0.20163,0.60296,-0.36977,0.044565,0.40344,0.33842,0.32606,-0.032459,-0.50526,0.65892,-0.45137,-0.12658,-0.40483,0.76766,0.50553,-0.015715,0.040316,0.027826,-0.11854,0.075937,-0.55205,-0.58016,0.30379,-0.0094877,-0.88638,0.76844,0.77448,-0.0076267,0.44744,0.022729,0.5413,-0.41538,0.33335,0.85954,-0.97994,0.42138,0.9331,0.22173,-0.0073766,0.030806,0.27335,-0.26771,-0.87103,-0.11331,-0.39726,-0.089342,-0.45514,0.084516,-0.50666,0.75515,0.72019,-0.37696,0.090862,0.18939,-0.29671,-0.13093,-0.18089,-0.27647,-0.17421,0.44427,-0.52216,-0.64766,0.14379,-0.070381,-1.0724,0.055235,0.39986,-0.52063,0.28239,0.93478,-0.33793,-0.64541,-0.11428,-0.39495,-0.18704,0.32081,0.59226,-0.29262,0.10893,0.54263,0.016581,-0.29326,0.70306,0.1754,-0.23364,-0.16238,0.34603,0.60832,-0.9014,-0.5645,0.5049,-0.47483,0.17912,-0.46398,0.092565,-0.65215,-0.015818,0.25938,-0.71891,-0.0055986,-0.19252,0.76512,0.22851,1.3508,0.090908,0.26248,-0.5023,-0.13578,0.25684,-0.46687,-0.35964,0.14524,0.69254,-0.057737,0.62847,0.014674,-0.1535,-0.024597,-0.61025,0.34844,-0.40796,0.030612,0.2807,-0.10765,-0.2816,-0.31086,-0.4878,0.82219,-0.60344,-0.04394,10,342
Valero,-0.30871,0.20294,0.61128,-0.34002,0.089203,-0.23065,-0.74152,0.28265,-0.30547,-1.3841,-0.039276,0.11617,0.067708,-0.02212,-0.2531,0.27175,-0.0097572,-0.99621,-0.10292,-0.77592,0.7838,-0.262,0.25461,-0.18568,0.8478,0.17459,0.093786,0.56095,-0.041803,0.16567,0.032092,-0.54752,0.31959,-0.3708,-1.315,0.045397,-0.26938,-0.22013,0.16939,0.76284,0.16467,0.11344,0.97928,0.099965,-0.24654,0.035769,-0.032722,-0.37876,-0.28185,0.23149,0.23183,0.68018,0.54275,0.015595,0.19914,0.12084,0.00037834,-0.43549,-0.42966,-0.072733,-0.0043956,-1.0831,0.58189,0.061503,0.9432,-0.1684,0.044085,0.45707,-0.45076,-0.10263,0.619,-0.39275,0.024218,-0.14987,0.49347,0.2674,0.016141,-0.31797,-0.037171,-0.3296,-0.38232,0.0058792,0.27583,0.50249,0.13843,0.52191,1.2293,0.14887,-0.95911,-0.8604,-0.29343,0.20859,-0.29828,-0.27254,0.33942,-0.16726,0.8462,-0.1912,-5.8977e-05,-0.44292,-0.50501,0.016861,-0.95069,0.68059,-0.63342,-1.0791,0.70678,0.46137,-1.0885,0.015809,-0.22204,0.25795,-0.8556,0.19189,0.12583,0.55409,0.63774,-0.3031,0.075766,0.079063,-0.28317,-0.26805,0.10096,0.41869,0.12747,0.13358,-0.10946,-0.37209,0.0022631,0.044019,-0.69207,-0.27035,-0.1622,-0.74869,0.28681,0.10417,0.1611,0.10156,-0.39952,0.16068,-0.17872,-0.43889,-0.78796,0.26034,-0.36715,0.34592,0.89859,0.47454,-0.22231,-0.014732,0.41721,0.34711,0.35953,-0.26405,0.20712,-0.0099858,0.013889,-0.1668,0.092235,0.014565,0.57083,0.29656,-0.10926,1.2555,0.063472,0.45559,0.019958,0.33363,0.36755,-0.14485,-0.99682,-0.22772,-0.13012,0.29267,0.42964,-0.2497,-0.19347,0.042534,-0.17061,0.071489,-0.18106,-0.24454,-0.33025,-0.16194,0.61377,0.22338,0.35976,-0.12334,0.32311,0.62291,0.34197,0.85097,0.38435,-0.1331,0.032217,-0.13879,0.22506,0.11597,0.31941,0.21963,0.13121,-0.23821,-0.47437,-0.11373,0.82954,-0.37298,-0.09308,0.39356,-0.20815,-0.60995,-0.67747,0.44406,0.085648,0.93868,-0.93205,-0.37755,-0.0040121,0.1367,0.41443,0.50446,0.60013,0.39749,0.48463,0.1333,-0.45335,-0.50176,-0.38584,0.51669,-0.61681,0.41025,0.45612,0.00043078,0.0092594,0.32577,-1.0676,-0.23107,-0.011015,-0.62065,0.49936,-0.012093,0.5344,-0.6966,-0.34064,0.031189,-0.3774,-0.74423,0.30835,0.4712,0.70227,0.26302,-0.069314,0.16785,-0.36817,0.14195,0.56277,-0.37188,-1.0315,0.13081,-0.11553,0.167,-0.079719,0.3555,-0.26395,0.24184,-0.078313,0.64363,0.62077,-0.18613,-1.0766,0.3264,-0.15891,0.28297,0.31028,0.75171,0.6385,-0.30554,0.38241,-0.062508,-0.10011,0.14217,-0.60508,-0.3353,-0.18458,0.40137,0.42434,0.49107,0.040148,0.39348,-0.35563,-0.10177,0.65006,-0.089709,-0.074021,-0.21336,0.52638,-0.15945,-0.14176,0.036478,0.11081,0.96751,3,330
Entergy,-0.6204,-0.44589,0.96923,-0.61345,0.043147,0.30611,-0.37672,0.82712,-0.12428,-1.1806,-0.074088,-0.16617,-0.22682,-0.24574,-0.36784,0.065362,-0.3016,-0.8868,-0.33322,-0.9339,0.34233,0.09731,-0.6706,-0.4924,-0.0029444,-0.69632,-0.08613,0.71795,-0.54291,-0.34183,-0.36229,-0.85807,-0.0070821,-0.10993,-0.39796,0.10669,-0.18648,-0.17663,-0.033004,0.1479,-0.40759,0.10798,0.3057,0.328,-0.59145,0.046791,0.35729,-0.95487,0.041816,-0.19204,-0.26892,0.4334,-0.21843,0.040549,-0.6984,-0.31257,0.56524,-0.46136,0.0083643,0.29145,-0.096822,-0.38169,0.93725,-0.30358,0.23781,-0.24413,0.268,0.0049857,-0.20419,-0.14115,0.43654,-0.10295,-0.39437,0.37764,0.68987,0.10836,-0.36774,0.37549,0.010926,-0.16091,-0.43003,-0.78405,0.22263,0.30224,0.23194,0.022133,1.112,0.033475,-0.33027,-0.89143,0.26225,0.21411,-0.4152,-0.244,0.23494,0.46527,0.068152,-0.60117,0.13388,-0.087232,-0.23155,0.024689,-0.12527,0.34661,-0.17065,-1.5282,0.57632,0.14941,-1.0727,-0.61505,0.20202,1.0166,-0.56673,0.18532,-0.26072,0.21318,0.84873,-0.7175,0.24587,-0.33392,0.41384,-0.38419,-0.49292,0.6343,0.39971,-0.60001,0.087363,0.52146,-0.099381,0.41602,0.015527,-0.44648,-0.55853,-0.47039,0.30749,0.10522,0.22209,0.19068,-0.07102,-0.26506,0.70136,-0.91168,-0.44684,0.33865,0.37827,0.81593,0.88898,0.46401,0.32041,-0.078699,0.032308,-0.54536,0.1369,-0.54744,-0.055816,0.079816,-0.13169,-0.22605,0.19155,0.2758,0.51842,0.69296,-0.20965,-0.26383,0.31086,0.50213,0.25048,-0.041458,-0.055547,-0.53829,-0.17301,-0.23112,0.15652,0.81509,0.26724,-0.26137,0.25363,0.40999,-0.019914,-0.42646,-0.96799,0.51314,-0.36629,0.23395,0.64371,0.029401,0.16821,-0.46177,-0.83499,-0.44144,0.53362,0.37295,0.59168,-0.08677,-0.11839,-0.30282,-0.056655,0.084175,0.29194,-0.12553,-0.028308,-0.14231,0.29178,0.1377,-0.47259,0.12145,0.26099,0.086325,0.38407,-0.20086,-0.32372,0.0068493,0.31942,0.68299,-0.46789,0.04729,0.49602,-0.082271,0.60667,0.71338,-0.31304,-0.34286,0.10317,0.8445,0.4554,-0.057384,0.17511,-0.38232,-0.19209,-0.66441,-0.11288,-0.12714,-0.043137,0.29291,0.28414,-0.32955,-0.37356,0.094149,-0.077932,0.63305,0.41535,-0.8363,0.27711,0.32981,-0.37174,0.049908,0.042671,0.39856,0.91319,-0.40438,-0.92408,0.13257,-0.20112,0.092115,0.21188,-0.34397,-1.2633,0.43711,-0.18416,-0.14186,-0.63231,-0.068796,0.20612,-0.059297,0.97234,-0.043437,-0.0072082,-0.077985,-0.10834,0.56753,-0.44763,-0.38688,0.063054,0.90119,0.27217,0.4368,-0.34815,-0.01861,0.40033,-0.31427,-0.57291,0.47708,-0.20281,0.30586,-1.0712,0.72537,0.56185,0.28903,-0.32143,0.64181,0.59559,0.177,-0.079648,-0.16038,0.29709,0.44137,0.43635,0.69437,-0.15888,-0.01762,5,202
Textron,0.19418,0.48589,1.1032,-0.18145,0.26809,-0.06294,0.30838,0.47366,0.12234,-1.6556,-0.40667,-0.30731,-0.65749,0.30632,0.31822,0.6971,-0.19978,-0.5238,0.11227,0.091003,0.35517,0.18516,-0.60678,-0.13217,-0.21565,0.60875,-0.16739,0.21129,-0.039975,-0.12645,-0.2892,-0.12355,0.29415,-0.40488,0.028391,-0.38453,-0.018982,0.2882,0.2948,0.47593,-0.042943,0.061917,-0.11463,0.3142,0.10842,-0.94943,-0.49692,-0.32989,0.68352,0.45843,0.61221,-0.18452,0.13997,0.72924,-0.16642,0.45159,0.47242,0.37617,0.14549,0.088269,0.1234,0.11826,-0.27854,-0.017775,0.029266,0.12454,0.13115,0.21349,-0.8846,-0.68299,-0.48991,0.14825,-0.35772,0.32428,-0.072584,-0.10353,-0.61505,0.263,0.14489,-0.48877,0.79876,-0.51501,0.46636,0.34879,0.13896,0.79702,1.2441,0.24942,-0.46064,0.49478,-0.20416,0.054817,0.36922,-0.28426,0.31127,0.4555,-0.045066,0.41885,-0.71983,-0.33327,-0.59909,-0.40112,0.13591,0.06365,0.2511,-1.0806,-0.17041,-0.61481,-0.50733,0.4192,-0.068272,-0.20733,-0.49105,0.18046,-0.23146,0.3874,0.48779,0.10043,-0.078269,0.3575,0.10714,0.19381,0.033691,0.23002,-0.44594,-0.0018719,0.69032,-0.08272,0.62389,0.18901,0.059565,0.03957,-0.58222,-0.72426,0.17142,0.21526,-0.27649,-0.42313,-0.67982,0.14393,0.24116,-0.53705,-0.42017,-0.43006,0.41959,0.13376,0.066927,0.071395,-0.36268,-0.18736,-0.20454,-0.46346,-0.063958,0.24189,-0.054893,0.78263,-0.37742,-0.37575,0.49389,0.16163,-0.40918,0.43124,-0.16656,-0.46011,0.05904,-0.39372,-0.41646,-0.15415,-0.045639,0.019475,-0.32138,0.5196,0.56477,0.64353,0.29199,-0.28365,0.74486,0.44119,-0.36214,-0.48401,-0.62862,0.10373,-0.25239,0.3946,0.39676,-0.4573,0.12981,-1.0121,0.18976,-0.18207,-0.11366,0.10992,0.37128,-0.18142,-0.052682,-0.21715,0.15401,0.26191,0.071877,-0.41218,-0.18894,0.11187,-0.64075,-0.21195,-0.87267,-0.13499,0.56778,0.73188,0.94011,0.79261,0.22691,0.49381,0.84622,0.8808,0.26124,0.16263,0.23272,-0.19092,0.5988,0.30961,0.031858,-0.45665,0.40502,0.32795,-0.52277,-0.62712,-0.61895,-0.18946,-0.0456,-0.88576,0.29379,-0.8576,0.23309,-0.83407,0.062537,-0.57687,-0.1174,-0.22262,-0.2435,0.2431,0.77419,-0.043345,0.094115,-0.68185,0.33469,0.10749,0.016504,0.36696,1.1039,-0.30961,-0.0075523,0.03503,-0.035997,-0.23542,0.6253,-1.5125,-0.49943,0.28904,-0.58692,-0.15753,-0.031064,-0.92097,0.28971,-0.57178,0.24237,0.12335,-0.65259,-0.28653,-0.051805,-0.2343,-0.086802,-0.16785,0.85006,0.75628,-0.0047294,0.74582,0.28802,-0.15084,-0.28269,-1.2131,-1.2582,-0.060324,-0.74225,0.66663,-0.66392,0.64124,-0.30982,0.43494,-0.098067,0.24952,0.020184,-0.46948,-0.05998,0.66303,-0.44207,0.20972,-0.25296,0.96341,-0.24251,-0.60177,4,385
Masco,0.12242,-0.20436,0.09114,-0.27434,0.31194,0.21403,0.12476,0.29237,-0.5265,-1.5643,0.27659,-0.7653,0.23321,0.26239,0.76682,0.53148,-0.6915,-1.034,0.062192,0.12906,0.098465,-0.1862,0.90666,0.11479,-0.095861,-0.51437,-0.58955,-0.23169,0.405,-0.15132,0.17321,-1.0988,0.53186,-0.25527,-0.17749,0.11949,-0.38324,0.25968,-0.71595,0.28694,0.19801,0.27314,-0.077312,0.62975,-0.24809,0.12132,0.044216,-0.34208,-0.55998,0.2246,-0.28323,0.74595,0.38506,0.026537,-0.13129,0.30431,0.083048,0.65701,0.038907,0.52629,0.14074,0.080688,-0.0037629,-0.35869,-0.24384,-0.25383,-0.11692,-0.27861,0.15771,-0.12677,-0.55724,0.50693,-0.57716,-0.30302,-0.33464,0.16173,-0.091374,0.047761,0.34711,-0.58537,0.17809,-0.0021619,0.35406,0.35006,0.08115,0.75033,1.3136,0.2198,-0.7866,-0.02455,-0.0766,-0.52492,0.26298,0.32047,0.30261,-0.064203,-0.46905,-0.2333,-0.094576,0.42781,0.08406,-0.45506,-0.040453,0.49597,-0.20715,-1.1111,0.41167,-0.15692,-1.2626,-0.80902,0.13145,0.20849,0.16619,0.4565,-0.3012,0.39393,-0.040844,0.0027536,0.45572,0.54904,-0.30455,0.67415,0.90971,0.10056,-0.011034,-0.40278,-0.30469,0.33076,-0.3481,0.61958,-0.47266,-0.054121,0.45743,0.061887,-0.23713,0.37354,-0.31167,-0.78732,0.070482,-0.15891,0.82304,-0.40783,-0.65626,-0.34374,-0.36177,0.23824,0.91846,0.6017,-0.15229,-0.24075,0.4977,-0.35236,-0.17383,-0.27131,0.16959,-0.1479,0.2401,0.41631,0.67564,0.026445,-0.8574,0.43248,0.35339,0.81018,0.031426,0.33882,-0.42988,0.58282,-0.25032,-0.32943,-0.0039731,-0.20482,0.2814,0.35374,-0.073531,-0.25162,0.010767,-0.19118,-0.23967,0.23178,0.34701,0.21885,-0.049232,-0.39886,-0.34446,0.24621,0.76689,-0.21909,0.47016,-0.50167,-1.0126,-0.098149,0.61959,-0.42253,0.36044,-0.23414,0.13277,0.082892,-0.23362,-0.75847,0.32395,0.41949,0.42819,0.13531,-0.46237,0.22762,0.43421,0.44536,0.3475,0.092926,-0.29099,0.11649,0.0064515,1.1603,-0.17947,0.45835,0.41015,0.14729,0.58775,-0.44301,0.10315,-0.40561,-0.64494,0.32778,0.50684,0.43082,-0.17731,-0.41796,-1.0651,-0.40374,-0.051769,-0.55488,-0.78222,-0.61411,0.53307,0.46947,0.0087081,0.080088,-0.073914,-0.26386,-0.3365,-0.38505,0.64412,-0.39342,0.37835,0.24006,-0.38745,-0.29488,-0.017681,-0.29006,0.52498,-0.11927,0.038419,-0.41018,0.16867,-1.6536,-0.35981,0.21543,-0.10014,0.088665,-0.092911,-0.11461,0.047037,0.22919,-0.38906,0.88441,0.19925,0.10017,-0.56646,-0.25496,-0.029888,-0.10766,0.027902,0.54035,-0.22553,-0.55364,-0.39458,0.19818,0.41203,-0.15713,-0.78986,0.34794,-0.81755,-0.71368,-0.26216,-0.094619,-0.13513,0.10706,-0.29633,-0.16282,0.005452,0.27623,0.066516,0.57645,0.45428,0.22831,-0.65862,0.61871,-0.32052,-0.55228,4,75
Citrix,0.50457,-0.13941,0.34904,0.55962,0.14049,0.083606,-0.10424,-0.032645,-0.0030741,-1.1848,0.32775,-0.73784,-0.0047354,0.42427,-0.36395,0.061835,-0.0025592,0.63415,0.2485,-1.255,0.59407,-0.13829,0.56322,0.1826,-0.7292,-0.45406,0.36676,-0.76195,0.49226,0.37701,-0.47689,-0.41161,0.37469,0.90102,-0.456,0.24627,-0.12931,0.15673,-0.02446,-0.22355,0.44996,0.27239,-0.64273,-0.17519,0.11327,0.36642,-0.099324,-0.44583,-0.2049,-0.41297,0.41269,-0.031084,-0.11766,-0.93086,-0.22662,-0.3021,-0.86085,-0.33904,0.36107,-0.72047,-0.080114,-0.4207,-0.21182,-0.23616,0.63729,0.18,0.38361,-0.62386,-0.622,-0.076242,-0.21678,-0.29702,0.45417,-0.22441,-0.055204,0.11511,0.13292,0.4066,-0.33262,-0.13416,-0.026059,-0.14394,0.50321,0.49953,-0.76786,1.0569,1.2338,-0.34378,0.024957,-0.21431,-0.058183,-0.46764,-0.31116,0.2946,0.40504,0.71728,-0.53075,0.031567,-0.2742,0.14301,-0.10715,0.16429,-0.34274,0.50589,-0.033269,-1.7676,0.17922,0.97413,0.045331,0.29617,0.33267,0.25945,-0.97252,-0.19989,-0.31364,-0.018046,0.49855,-0.16291,-0.432,-0.43726,0.1728,0.50854,0.20455,-0.072702,-0.06885,0.10105,0.61452,-0.027728,0.12534,-0.73317,0.026173,-0.34575,0.087401,0.063164,-0.25076,-0.34312,0.67169,0.39181,-0.006405,-0.24177,0.33035,-0.81035,-0.40552,-0.5715,0.27715,0.39372,0.43592,0.16313,-0.74266,-0.033778,0.37505,-0.50762,0.11898,0.29296,-0.22368,0.94824,0.17529,0.70942,0.18244,-0.2593,-0.30685,-0.02787,0.15255,-0.70602,-0.29311,0.19932,0.12377,-0.72334,-0.73108,-0.09309,0.47704,-0.21812,-0.60735,0.58958,0.71228,-0.026519,-0.46641,0.87732,0.018556,-0.16404,-0.093196,0.26471,-0.49339,0.50953,0.92575,0.11059,0.94063,0.018381,-0.19914,-0.11769,-0.45691,-0.025698,0.094517,0.42011,0.57794,-0.11991,-0.041601,-0.8331,0.32756,-0.032231,-0.035465,0.069264,-0.69365,-0.30648,-0.39871,-0.20452,-0.025095,0.44484,-0.06198,0.17345,0.44429,-0.34813,0.31315,0.34324,-0.68873,-0.51058,0.33343,-0.53441,-0.014793,0.29005,-0.51897,-0.18902,-0.2793,0.85083,0.17199,0.05738,0.89007,0.25106,-0.98389,0.20322,0.25371,-0.36865,0.99053,0.32402,-0.49936,-0.24346,-0.1996,-0.36614,-0.30209,0.28284,0.76613,-0.0023643,0.35827,-0.8043,0.25059,-0.20471,0.28107,-0.18525,-0.46256,-0.72735,0.2833,0.12541,-0.067844,0.13519,0.81932,-0.82005,-0.15072,-0.85457,-0.69023,-0.55407,0.68339,-0.27386,0.94513,0.26977,0.12301,-0.69887,-0.53759,0.19901,0.39348,-0.38893,-1.1465,0.73281,0.50736,0.69046,-0.042225,0.31427,0.036284,-0.18414,0.28547,-0.58218,-0.70857,0.49651,-0.46135,-0.012408,0.18995,-0.33897,0.42917,0.31154,-0.19119,-0.29274,0.76676,0.5542,0.34033,-0.20086,-0.030317,-0.20721,0.66564,0.08553,0.079671,-0.72561,11,874
KeyBank,0.16402,-0.29821,-0.33606,0.13014,0.58812,-0.15245,-0.15245,0.32281,0.30405,-1.0766,0.58577,-0.060567,-0.49488,0.73194,1.2794,0.24688,0.404,-1.3938,0.31973,0.18237,0.77517,-0.24823,0.22068,-0.33295,0.92483,0.54703,0.53542,0.33062,-1.0252,0.22677,0.63505,0.64475,0.77961,-0.84109,-0.70624,0.10322,-0.76114,0.28108,0.44778,0.2735,-0.70888,-0.12504,0.49713,-0.23878,-0.23898,-0.69722,0.82961,-0.49874,-0.37508,-1.0001,-0.25513,0.2079,-0.23489,0.26205,-0.14856,-0.73739,0.057529,0.6739,-0.50061,0.92928,0.67145,0.1784,0.26788,-0.53652,0.075756,-0.50563,0.31002,0.15218,-0.11736,-0.022687,0.525,-0.33725,0.066443,0.0077044,0.12949,-0.12167,0.39469,0.27665,-0.47425,0.014664,-0.11967,-0.16758,0.30644,0.12917,-1.091,0.92737,1.1727,0.027283,0.17736,0.18559,0.086807,-0.14325,-0.544,-0.046507,0.11413,0.81025,-0.72098,-0.11198,-0.12393,-0.70677,0.11009,-0.61423,-0.68074,0.30435,-0.70397,-1.0545,-0.28182,-0.67912,-0.066582,0.0031043,0.31011,0.9814,-0.26735,-0.67776,-0.25815,-0.43924,1.501,-0.65201,0.40196,-0.70322,0.166,-0.48131,-0.47347,0.069209,-0.26567,0.14504,-0.28451,0.94727,-0.46569,-0.095057,0.42968,0.62146,-0.15792,0.0018413,-0.30729,-0.12168,-0.59366,0.34296,-1.0282,-0.68449,0.70042,0.090719,0.061368,-0.4623,-0.22559,0.18189,0.66511,-0.09855,-1.1973,0.2878,0.080529,-0.2502,-0.60361,-0.3836,0.34766,0.95499,0.27309,0.037262,0.33227,-0.41502,0.30271,1.2294,0.61944,-0.31258,0.12922,-0.33687,-0.096588,0.28497,-0.60615,0.19268,0.025016,0.03484,0.57964,-0.21034,-0.33857,0.34733,0.95354,0.013886,-0.38549,0.46412,0.19897,0.18447,0.16231,0.36611,0.80951,-0.2898,-0.093638,0.012933,-0.85267,-0.085796,0.34782,0.26275,0.58175,-0.38653,-0.20595,-0.067023,0.46437,0.050518,0.37026,-0.41943,-0.98597,-0.73945,0.081135,-0.42379,-0.70482,-0.086808,0.80738,0.020087,-0.083028,0.60903,0.22675,0.49396,-0.10751,-0.24525,0.082279,-0.24526,0.63516,0.11509,1.1783,0.5657,-0.27776,0.17251,-0.16227,0.35553,-0.8917,-0.20482,0.53351,0.33488,-0.21949,-0.57184,0.91387,-0.72833,0.32556,-0.60361,-0.49785,-0.33906,0.18518,-0.056586,0.60385,0.3087,0.84539,0.3278,0.76853,-0.22804,-0.1104,-0.11352,0.15194,-0.28996,0.77346,-0.64131,0.26404,0.25656,0.17386,-0.15667,0.24897,-0.16551,0.56271,0.14139,0.05053,-0.34455,0.331,-1.1096,0.25119,-0.28229,0.16514,0.57169,0.12773,0.0048896,-1.1066,0.2073,-0.14215,0.60013,-0.016808,0.62673,-0.15131,0.38689,0.29405,-0.33717,-0.038318,-0.28642,-0.028503,-0.34456,-0.22017,0.14493,-0.12609,1.0044,0.62333,0.11876,-0.34278,0.54377,0.27949,-0.26617,-0.13596,0.15574,-0.20761,-0.074231,-0.86577,0.364,-0.8856,0.32123,1,92
Cognizant,0.26333,-0.36117,-0.1026,-0.050497,-0.041573,0.22796,-0.052663,0.26945,0.067049,1.1512,0.078517,-0.23476,-0.41665,-0.10385,0.11994,-0.010171,-0.27877,-0.1902,-0.2665,0.2968,0.23712,-0.28493,-0.3054,-0.089817,-0.30933,0.039623,0.23433,0.13405,0.13393,-0.31343,-0.29235,-0.30426,-0.31648,-0.16748,-0.34431,-0.20113,0.11632,0.40104,-0.081755,0.10482,-0.050086,-0.42125,0.0039023,0.20506,0.042108,0.0012432,0.27411,-0.088571,0.056186,0.014406,0.052218,-0.29357,-0.2509,-0.2684,0.62423,-0.021816,-0.27291,0.019989,0.24007,-0.10912,0.023131,-0.72432,-0.13812,-0.17475,-0.26151,0.27638,0.042668,0.0011402,-0.14861,-0.05058,0.088592,-0.6041,0.20179,-0.21346,0.14555,-0.14782,0.23666,-0.25326,-0.21286,0.1189,0.40525,-0.092665,-0.32704,0.57368,0.12818,-0.43516,-0.010091,-0.15682,0.46643,-0.52368,0.029534,-0.20956,-0.79136,0.24721,-0.1772,0.20261,-0.058334,-0.42865,0.074928,-0.17,0.16022,0.29225,0.032348,0.36818,0.39547,-2.2679,-0.34946,-0.22736,0.086775,0.23698,-0.13202,0.38715,-0.19207,-0.25204,0.015871,0.037773,-0.21939,-0.34597,0.21673,-0.49063,0.25777,-0.41128,-0.30268,0.34865,0.48362,-0.082577,-0.13881,0.1988,-0.031619,-0.47795,0.44584,-0.18988,-0.85109,-0.023351,-0.066048,0.088909,-0.13082,-0.26786,0.086027,-0.29992,0.48522,0.22491,-0.13896,0.81744,0.10675,-0.38896,0.29555,0.1612,-0.52155,0.30993,-0.27558,-0.49528,0.22545,-0.047645,0.41197,0.074549,-0.19417,-0.116,0.23904,-0.018239,-0.45255,0.11708,0.18287,0.22772,0.48611,-0.17427,0.16809,0.16022,-0.27336,0.25851,0.17786,-0.30046,0.12978,0.028962,0.3846,-0.23379,-0.33486,0.63965,-0.49768,0.35846,0.2244,-0.25212,0.5478,0.032514,-0.036819,0.17099,0.17921,-0.038563,-0.007456,0.10316,-0.20729,0.1273,-0.065002,-0.079273,0.066977,-0.37673,0.33808,0.43617,0.2978,-0.013557,0.44601,0.14648,-0.28716,0.20149,-0.52567,-0.12271,0.21944,0.19125,0.52824,0.016394,0.21706,0.28565,-0.12726,0.14657,-0.25789,0.28107,-0.10526,0.098826,-0.3776,0.045368,0.144,-0.22757,0.27099,0.045536,-0.17068,-0.27778,-0.17438,-0.17839,-0.24579,-0.84274,0.2197,0.11552,-0.21896,0.62412,-0.12655,-0.049221,-0.24202,-0.53484,0.10885,-0.21381,0.12718,-0.10721,0.34714,-0.016967,-0.56053,-0.11299,-0.046033,0.25211,0.17475,0.11681,-0.057194,0.29013,-0.098867,0.33152,-0.3801,-0.5051,-0.23663,-0.14679,0.10109,-0.044021,-0.38686,-0.15721,-0.28839,-0.096367,-0.39588,-0.23248,0.0084115,0.012614,0.093509,0.27122,0.050255,0.10209,-0.18574,-0.13103,0.42478,0.019334,0.084556,0.3275,-0.21101,-0.16474,0.016715,-0.085038,0.065692,-0.060456,-0.15742,0.18244,0.18668,-0.050271,0.27592,0.52331,-0.10511,0.33797,-0.063467,0.027175,0.26874,0.10754,-0.21137,-0.0064311,-0.088184,-0.26559,11,105
Weyerhaeuser,-0.44105,-0.09782,-0.10311,-0.57512,-0.82447,0.54552,-0.046098,0.23051,-0.042447,-1.1771,0.11715,-0.83112,0.29383,0.39664,-0.33323,-0.076531,-0.086796,-1.235,1.0262,0.59162,-0.12654,0.24682,0.35129,0.20426,-0.51572,-0.074727,-0.012599,-0.33156,-0.030217,-0.027361,-0.15623,0.052128,-0.51668,-0.088636,-0.20767,0.32827,0.42388,-0.93747,-0.36497,-0.17968,-0.38406,-0.12845,-0.54555,-0.41242,0.16897,0.41233,-0.081721,0.06994,-0.013458,-0.30367,0.4452,-0.018599,-0.38335,0.15364,0.28596,0.096335,0.069695,0.21294,-0.33122,0.54742,-0.22653,0.69753,0.25514,0.15112,0.11925,0.79145,0.31066,0.081867,-0.68522,-0.54514,-0.49876,-0.14139,0.11484,-0.43539,0.39907,0.14312,-0.25409,0.18528,-0.4168,-0.081784,0.42141,0.29121,0.12688,1.5547,-0.17619,0.69967,1.5399,0.55938,-0.18066,0.75202,0.025195,-0.37312,-0.33281,-0.7938,-0.31276,0.89461,0.14126,-0.075568,0.16601,0.4686,-0.78868,-0.18832,0.096214,0.65994,-0.48002,-1.4153,0.47129,0.2379,-0.14872,-0.20309,0.42286,0.068987,0.71373,0.25658,-0.47138,0.86676,0.31889,-0.47797,0.1423,0.41749,-0.17946,0.57798,-0.18186,0.23631,0.54223,0.096914,0.035901,-0.17841,0.10654,-0.2723,-0.29465,-0.17032,-0.29801,-0.60844,-0.78399,-0.38932,-0.20228,0.17096,-0.39164,0.093261,0.84916,-0.65354,-0.77655,0.13381,-0.04337,0.23202,0.198,0.183,-0.55078,-0.11613,-0.15054,-0.71302,-0.48915,-0.18503,0.76268,0.032879,-0.56788,-0.20776,0.26371,0.37184,0.22763,0.62718,0.49151,1.5911,0.0567,-0.21558,-0.85477,0.50599,-0.4142,-0.15165,0.68076,-0.63766,-1.2805,0.88857,0.1332,0.1539,0.33822,0.12472,-0.30738,0.48866,0.69321,0.31426,0.22721,0.34158,0.57643,0.73203,0.45796,-0.77213,0.31555,-0.11247,-0.11417,0.37335,0.45018,-0.84444,0.28802,-0.087579,0.56365,0.31018,0.083464,-0.21442,0.81576,0.21183,-0.03603,-0.49274,-0.21667,-0.034936,0.62788,0.52434,0.30073,-0.16733,0.068951,0.27549,0.10606,0.2596,0.15876,-0.069734,0.61979,0.13617,0.87339,-0.046787,0.19742,-0.15486,-0.047816,1.1262,-0.29173,-0.12494,-0.36882,-0.89538,-0.65072,0.023572,0.099446,0.030793,-0.53058,-0.93164,0.3852,-0.23753,0.37161,0.45127,0.056171,0.29925,0.34284,-0.4966,-0.010006,-0.27755,0.72234,-0.52543,-0.16901,0.17154,0.9102,-1.384,0.49809,-0.082369,-0.092351,0.39803,-0.63586,-1.4434,0.26858,0.092557,-0.36807,0.095792,0.10669,-0.27525,0.54097,0.098908,-0.042593,0.11053,-0.49106,-0.6782,-0.27003,0.043937,-0.50637,-0.1321,0.59609,0.5035,-0.41541,-0.31875,-0.18829,0.24937,0.10422,-0.553,-0.049661,-0.13092,-1.2546,-0.59311,0.42272,1.1843,-0.27473,0.03211,0.15791,-0.09993,0.24255,0.25197,0.1818,-0.22778,-0.28316,0.79623,-0.60254,0.13155,-0.44804,-0.49743,8,138
CenturyLink,0.41798,0.55871,-0.026254,-0.25978,-0.11739,-0.032294,0.34366,0.54564,-0.093425,-1.4643,0.83581,-0.36061,0.15129,0.24202,0.19865,0.38568,1.1714,-1.3405,0.027786,-0.53454,0.62348,0.56852,-0.32238,0.62868,0.48882,-0.44327,-0.49498,-0.13533,-0.3017,0.27898,1.2729,-0.23567,-0.20782,0.12153,0.24288,0.06128,-0.081803,0.70368,0.91463,0.082189,-0.17437,0.32871,0.20549,0.79043,0.25195,-0.045719,-0.042806,-0.16759,-0.58954,0.14816,0.15254,0.12269,-1.0787,0.33948,0.37749,0.093944,0.072455,0.078883,-0.12258,0.47359,-1.0017,-0.012043,-0.27942,-0.25349,0.67624,0.689,0.18354,0.10478,0.062407,-0.93071,-0.16136,-0.058143,-0.8106,0.46189,0.38346,0.25978,-0.48639,0.093332,-0.34168,0.328,-1.0344,-0.26975,0.52154,0.12926,0.36337,0.22006,0.89512,-0.12849,0.0041328,0.12708,0.41747,0.41069,0.10905,-0.68333,-0.016164,0.43694,-0.53159,-0.59777,0.12106,0.30788,-0.30944,-0.31449,0.5522,-0.3468,-0.28497,-1.0859,-0.02336,0.035293,0.32632,-0.36469,0.57384,0.050681,0.21045,0.17647,-0.10607,-0.10392,0.37239,-0.093472,0.56181,-0.57684,-0.77432,-0.47534,0.050547,-0.075599,0.12244,-0.16572,-0.23907,-0.29506,0.57284,0.3752,0.46543,-0.37277,-0.57902,0.43969,-0.25503,-0.10692,-0.43335,-0.51112,-0.37378,-0.057484,0.36674,-0.67298,-0.14426,0.27284,-0.13238,-0.3346,1.1702,-0.5575,-0.58832,0.13122,-0.00022343,-0.35374,-0.13604,0.1376,-0.078653,0.61998,-0.10711,-0.34782,0.22286,0.16451,0.62045,0.049252,0.079849,-0.19556,-0.17893,0.33988,-0.14819,-0.0020955,-0.68837,0.14865,-0.4295,0.2326,-0.0006973,0.17436,0.3801,-0.42886,-0.11275,-0.18525,-0.20795,0.20527,-0.49474,0.018778,-0.33766,-0.13791,0.36392,0.40767,-0.16749,-0.40787,-0.092614,-0.14434,0.82423,-0.92034,-0.15481,-0.7937,-0.53892,0.26133,-0.10171,0.13066,0.11783,-0.63211,0.022792,-0.51143,-0.88191,0.43805,-0.72508,-0.099722,0.35425,-0.19601,0.3071,0.046699,0.12095,0.30051,0.8717,0.50754,0.15982,-0.97298,0.27678,-0.1607,0.3077,-0.047039,-0.64017,-0.27682,-0.030286,-0.29414,0.38403,0.032649,-0.036985,-1.2037,0.14986,-0.28557,0.49189,-0.54545,0.56177,0.39529,-0.27724,-0.38379,0.31773,-0.84597,0.45556,0.18454,0.71382,-0.23109,0.1517,0.10538,0.062003,0.076044,-0.19135,-0.81916,-0.061305,-0.34149,0.61801,-0.36279,-0.52075,0.49585,0.19955,-0.95465,-0.86808,-0.32703,-0.012793,-0.53699,0.56767,-0.42681,0.026917,-0.42601,-0.29413,0.20704,-0.29928,-0.44701,-0.80106,0.23734,-0.38143,0.81326,-0.22618,0.247,0.22003,0.12243,-0.19038,0.10761,0.46631,-0.27253,-0.6898,0.23829,-0.60025,-0.024543,-0.30977,0.20562,-0.065917,0.62834,0.057862,0.20155,0.76657,0.93354,0.22482,0.11514,0.42521,0.31832,0.54065,0.36275,-0.010218,0.58061,2,592
Stryker,0.10468,0.040271,-0.035226,-0.15881,-0.099261,-0.021634,-0.38311,-0.52585,0.26607,-0.96643,0.12619,-1.0382,-0.19157,-0.099201,-0.93198,0.46201,0.012926,-0.54883,-0.42986,0.2849,0.071113,0.36944,-0.082985,0.082275,-0.54907,0.67701,-0.58393,0.52831,-0.26034,0.70287,0.4524,-0.15904,0.036243,0.93397,-0.055665,-0.035006,0.081935,-0.40656,-0.39442,-0.46003,-0.24948,0.77643,0.1408,-0.15783,0.43548,0.48863,0.29365,0.12263,-0.12205,0.13824,0.29356,-0.34996,-0.12037,-0.50231,-0.29708,0.53798,0.07996,-0.040995,-0.27761,-0.14993,-0.17943,0.27406,0.28542,0.13394,1.007,-0.15108,-0.25832,-0.1598,-0.58848,-0.54276,0.15133,-0.49718,0.12557,-0.12569,0.45947,-0.2546,-0.15494,-0.33425,-0.0077769,0.19409,-0.036372,-0.31304,0.11452,0.98975,0.15259,0.37749,1.7621,-0.59284,-0.45376,-0.0080804,-0.16199,0.21893,-0.10317,-0.39709,0.02509,0.65542,0.67089,-0.15496,-0.28434,0.74265,-0.5603,0.14193,0.070586,0.46917,-0.067849,-1.2299,-0.54408,-0.2829,-0.55004,-0.50147,-0.040035,0.16942,0.10999,-0.10814,-0.013821,0.75269,0.17685,0.040098,-0.10955,0.29267,0.2571,0.43415,0.46226,0.75782,-0.071409,-0.51426,-0.21443,-0.039721,0.49588,0.19332,0.70524,-0.19416,0.28756,-0.16789,-0.18958,-0.14812,-0.26894,-0.20094,-0.59485,-0.064718,-0.27462,-0.067418,0.10958,0.11766,0.16366,0.4864,-0.29074,0.3017,-0.31688,-0.82634,-0.0022158,-0.5677,0.084522,0.08763,0.10758,-0.27406,0.011454,0.62328,-0.39278,0.66731,0.38996,0.58644,-0.28064,-0.16395,0.45001,0.21451,-0.33807,0.01849,-0.57192,-0.2341,0.13768,-0.3621,-0.27812,-0.32246,0.15115,-0.06242,0.21232,0.56887,-0.24885,0.10508,0.22997,-0.063121,0.060062,-0.067645,0.48064,-0.17749,0.071035,0.21199,0.039185,0.08025,-0.39597,0.51609,1.0046,-0.20723,-0.088619,0.34393,0.70806,0.35907,-0.026139,-0.46079,0.31876,-0.17219,0.00652,0.097595,0.044727,0.28105,-0.46911,-0.1613,-0.44364,0.33595,-0.66913,0.69532,0.10527,0.3456,-0.45437,-0.05112,0.34187,-0.045535,0.25654,-0.00084559,0.041508,-0.056647,0.3247,0.64628,-0.53883,0.47,-0.92315,0.081543,0.46758,0.12593,-0.2838,-0.05831,0.48399,-0.6468,-0.25992,-0.71135,0.2355,0.38336,0.39908,0.30502,-0.11978,-0.038445,0.13367,-0.062056,0.49546,0.6707,-0.40679,-0.23901,0.23211,0.38464,0.02621,0.12022,0.5192,0.28936,-0.40678,-1.0494,0.57448,0.38006,-0.12877,0.18436,-0.55163,-0.111,0.32895,-0.65717,-0.0071303,-0.40389,-0.44051,0.28688,-0.63372,-0.004804,-0.13889,-0.34689,0.20929,0.11165,-0.35308,0.29585,0.25987,-0.13292,-0.34929,-0.069024,-1.1227,-0.32859,-0.36674,0.24308,0.62848,-0.085902,-0.28674,0.75252,-0.048243,0.31397,0.32506,-0.74605,-0.28839,-0.25705,-0.5939,-0.16882,-0.082156,0.69737,-0.27951,0.035124,6,307
Xilinx,0.48034,-0.04362,0.12181,0.065742,0.098787,0.1564,0.099223,0.54644,-0.26837,-1.7517,0.34443,-0.83806,-0.14085,0.70526,0.52026,-0.19391,0.94153,-0.223,0.75073,0.022147,0.39002,0.25772,0.14008,-0.34605,-0.64949,0.16526,-0.019072,0.34442,0.28704,0.070217,0.0905,-0.86399,-0.23797,0.044386,-0.51538,0.69122,0.13318,-0.41371,-0.29445,0.20402,-0.80047,0.026786,0.65651,-0.50093,0.083713,-0.029239,0.039956,-0.31163,-0.46115,0.62703,-0.13925,-0.35853,-0.44177,0.15281,-0.20859,-0.40713,-0.68747,-0.037003,-0.42673,0.26551,-0.37607,0.33017,0.44308,-1.0711,0.45169,0.14049,0.16913,-0.17627,-0.31701,-0.38042,0.5066,0.016331,0.36262,0.18071,0.42145,-0.020211,-0.10921,-0.39894,-0.26562,-0.31183,-0.48475,0.085057,0.48699,0.2204,0.37543,1.4055,0.74964,-0.76655,-0.59872,-0.035851,-0.31487,0.30665,-1.2319,-0.29905,-0.20559,0.50672,-0.17349,0.08936,0.096274,0.016397,-0.66114,0.53281,-0.30009,0.29691,-0.052558,-1.5514,-0.54771,0.54187,0.2463,0.12924,-0.4521,0.30279,-0.26095,-0.30953,-0.40397,-0.074304,0.37451,0.2359,0.52876,-0.1892,0.61682,-0.69644,0.54387,0.43453,-0.08156,0.78491,0.59748,0.0063497,0.424,-0.46623,0.36092,0.60524,-0.19079,-0.16786,-0.27682,-0.14823,0.16603,1.0403,0.59439,-1.471,0.56518,-0.078144,-0.42776,-0.11582,0.39883,-0.40971,-0.54775,-0.27215,-0.46898,-0.12168,0.45534,-0.76355,-0.25176,0.44821,-0.39641,-0.90106,0.94517,-0.17178,0.83378,0.3868,-0.33893,0.10632,0.08076,0.080169,0.29217,0.53694,0.36229,0.25589,-0.72351,0.2251,-0.4947,-0.25948,0.63966,-0.38245,-0.49668,-0.73307,-0.034173,0.30808,0.21411,0.46542,-0.1158,-0.49196,-0.41918,-0.57491,0.48196,0.01151,0.44449,0.40028,-0.059652,0.26304,-0.30774,0.16197,-0.23721,0.043393,0.42012,0.80728,0.17646,-0.01362,0.42408,-0.039858,0.20377,0.58059,-0.68647,0.029199,0.54415,0.2233,-0.13614,0.0596,0.040312,0.022481,-0.060384,-0.077158,-0.54071,-0.53372,-0.29394,-0.58418,-0.17327,-0.41662,-0.0011343,0.18342,-0.074923,-0.22039,0.3208,0.14476,0.15651,-0.70872,0.32682,-0.64415,-0.81386,0.094146,0.059138,-0.91352,-0.039894,-0.31072,-0.22526,-0.1396,0.26206,0.089873,-0.064263,-0.046368,0.51255,0.47015,-0.33251,-0.21439,0.56788,0.010703,0.046253,-0.31502,1.2633,0.1282,-0.16577,0.33412,-0.54586,-0.30258,-0.27048,-1.2432,-0.1306,-0.036145,-0.32911,-0.70167,-0.17746,0.1955,0.39414,-0.63439,0.22792,-0.35509,0.24915,-0.092605,0.076608,-0.25943,-0.46714,0.28535,-0.31405,0.33011,-0.34843,-0.091013,0.30189,-0.41263,-0.41848,-0.36796,-0.152,-0.38285,-0.19579,0.77944,-0.079226,-0.29013,-0.18496,-0.094788,0.34538,-0.53543,0.1878,-0.51231,0.19713,-0.24719,0.25943,0.041975,-0.70184,0.29714,-0.44922,-0.17049,11,305
Boeing,0.25845,-0.047335,0.52664,-0.57983,0.24645,-0.18611,-0.71002,0.67484,-0.14206,-0.28517,-0.33117,-0.17305,-0.14456,0.6273,0.071187,-0.032825,-0.15155,0.46185,0.18849,0.31552,0.27756,0.67272,0.43945,-0.35173,0.17621,0.21058,-0.30935,-0.119,0.29905,-0.12015,-0.4068,0.24939,0.41291,0.57607,0.34914,0.26218,0.28071,-0.13315,-0.73035,-0.40525,-0.23096,-0.59083,0.17082,0.79549,0.2221,-0.072841,-0.62012,-0.39269,0.32794,1.0545,-0.091528,-0.092427,-0.26133,-0.091139,-0.30287,-0.11734,0.15947,0.023371,0.13215,-0.23477,-0.21186,-0.23025,-0.036995,0.06034,0.88742,0.11613,0.098746,0.49863,-0.50397,-0.13928,-0.3344,-0.43693,-0.19374,0.4461,0.766,0.005954,0.12211,0.37089,0.53457,0.71084,0.42906,-0.40275,0.55328,0.0089244,-0.1303,0.10618,1.4778,-0.21429,-0.17274,-0.4414,-0.14669,0.1765,-0.16917,-0.64909,0.053387,0.25975,-0.40033,0.59299,-0.20292,0.57893,-0.42516,-0.20996,0.51585,0.72133,-0.4715,-1.4764,-0.19477,0.44987,0.27045,0.1789,-0.48357,0.26873,-0.063583,0.067403,-0.28921,0.2793,0.74582,0.13332,0.10185,-0.23598,-0.27113,0.097677,0.35969,0.23254,-0.17875,0.18484,0.21476,0.038641,-0.06072,-0.34673,-0.31048,-0.30127,-0.12152,-0.58874,0.42311,-0.54744,-0.37688,0.047243,-0.63424,-0.058653,-0.52283,-0.48446,-0.17047,0.13456,0.2585,0.41747,0.08806,0.34049,-0.29786,-0.28223,0.30605,-0.27327,-0.53861,0.11052,0.11966,0.077267,-0.0292,0.63261,0.2225,0.010829,0.1653,-0.092268,0.0041159,0.23458,0.37872,-0.0092404,-0.26406,0.056555,0.65965,0.62183,0.074624,0.24408,0.092044,-0.30231,0.49956,-0.086734,0.27166,0.66414,-0.019525,0.43271,-0.35934,0.029985,0.13178,-0.37851,0.621,0.24706,0.29178,0.092015,-0.046543,0.19143,0.77817,-0.34175,-0.19669,-0.61215,-0.72766,-0.11454,1.027,-0.091482,0.5725,-0.33898,0.60063,-0.1353,0.45582,0.13824,-0.041848,-0.52465,-0.36293,0.16325,0.034644,0.59733,-0.38963,0.89286,0.48672,0.047818,-0.19747,0.68295,0.0036724,-0.030849,0.22144,-0.31223,-0.11308,-0.27672,0.38448,0.23653,0.080863,0.20832,-0.59751,-0.22354,0.144,0.3323,1.044,-0.33689,0.048026,-0.88623,0.40402,-0.12004,0.46234,-0.12663,0.042597,-0.21546,0.95057,-0.38248,0.68866,0.089301,0.19619,0.062994,0.0563,0.41304,0.089808,-0.77276,0.62977,0.18047,0.22013,-0.22289,0.32161,-0.38299,0.15441,0.021688,-0.4683,-0.25705,0.27391,-0.71187,-0.13167,0.55177,0.17114,-0.89854,-0.077586,0.56177,-0.24564,0.61848,-0.59329,-0.0034334,0.71875,-0.15955,0.33428,0.32362,0.012243,-0.45512,0.81113,-0.1196,-0.92117,-0.21666,-0.2494,-0.075432,0.032233,0.2661,-0.12761,0.52,-0.055851,-0.094629,0.10727,0.15425,0.44195,-0.10574,-0.013718,0.032389,0.27649,0.54934,-0.08534,0.077334,4,12752
Coty,0.60385,0.18109,0.41987,-0.64395,0.21002,0.62759,-0.12014,-0.15244,-1.2419,-1.067,0.62855,-0.18128,-0.92967,-0.095586,0.52824,-0.096547,-0.504,-1.0336,0.76841,0.15211,0.19966,0.18722,0.48837,-0.20857,0.17652,-0.40617,-0.79539,0.9978,0.13888,-0.1571,-0.11684,-0.34895,-0.71522,0.15852,-0.067844,-0.7698,0.22699,-0.80455,-0.32341,0.29107,-0.45187,-0.050846,-0.14893,0.17312,0.53331,0.23286,-0.46603,-0.82226,0.33836,-0.12754,-0.091663,-0.50406,-0.013127,0.44405,0.35173,-0.17536,-0.14857,0.40396,0.37424,-0.2142,-0.12388,0.29925,-0.20798,0.35344,-0.4263,0.12608,0.33514,-0.44762,-0.381,-0.6676,0.37259,-0.15502,-0.80194,-0.42437,-0.21025,0.27322,-0.36325,-0.28926,0.43505,-0.58455,-0.10186,0.41806,0.45269,0.86546,-0.12834,-0.21395,1.3608,0.12096,-0.4009,0.17338,0.29903,0.0017504,0.43933,-0.38659,0.0074494,0.014072,0.20717,-0.40213,-0.59232,-0.27053,0.20223,-0.11553,0.087416,0.24851,0.51335,-1.2701,-0.24457,0.067956,-0.23705,-0.39054,0.027245,-0.20117,-0.30485,-0.20411,-0.55378,0.70283,0.77599,0.81067,0.17848,-0.11137,0.37233,0.22473,-0.70546,0.23028,0.36583,0.15288,-0.012899,-0.12299,0.5286,-0.072842,-0.30274,-0.10197,0.2995,-0.48433,0.33035,-0.57454,0.13151,0.08094,-0.41246,-0.19351,0.32928,0.10145,-0.24191,-0.47893,-0.045022,0.20119,0.55607,0.76121,-0.59755,-0.35671,0.27499,-0.40654,-0.4197,-0.030795,-0.38621,-0.15943,0.067004,-0.3239,-0.22097,0.29735,-0.24163,0.22877,-0.40688,0.28077,0.16736,0.41959,-0.3575,-0.050917,-0.77141,-0.084511,0.29967,-0.11997,-0.01749,0.24125,0.044589,-0.031239,0.68846,0.18346,-0.01476,-0.021114,0.39179,0.24016,-0.11945,-0.12196,0.60199,-0.15031,-0.46571,-0.32593,0.16191,0.45249,-0.10953,-0.048557,0.19043,0.26136,0.14265,0.31545,0.50591,-0.47946,0.20024,0.051289,-0.24674,-0.38177,-0.3429,0.13697,-0.73846,-0.33236,0.26296,0.055747,-0.21555,0.29331,-0.28893,0.80053,-0.070952,0.2041,-0.33946,0.1673,0.34501,-0.72804,0.16956,0.12473,0.18818,-0.15448,-0.45653,0.15754,-0.62922,-0.41641,0.23226,1.1179,0.017567,-0.68704,0.2285,-0.093303,-0.4597,-0.43769,-0.52259,-0.15785,0.030213,0.66249,0.40664,0.097159,-0.040502,-0.15701,0.11158,-0.59653,-0.1015,-0.17086,-0.20012,-0.14638,-0.2375,-0.17698,-0.30736,0.3095,-0.46685,-0.53222,0.5,-0.49637,-0.2367,-0.51061,-0.2884,0.018883,-0.38612,-0.046254,-0.34787,-0.015211,-0.061665,-0.41705,1.011,-0.016363,-1.0968,-0.35741,-0.76865,-0.20889,0.13044,0.032683,0.35426,0.019759,0.27693,-0.12984,0.85058,0.20601,-1.035,-0.041324,-0.31472,-0.46954,-0.040952,-0.036741,-0.019098,0.54382,-0.20879,-0.3417,0.026993,0.34599,-0.17279,-1.018,-0.12558,-0.39167,0.222,-0.38042,-0.66126,-0.40429,9,220
Synopsys,0.0075492,-0.64466,0.22843,0.22972,0.10834,0.99877,0.35089,0.34023,0.53019,-1.722,0.56502,-0.31457,0.24386,0.55789,0.57646,0.32087,1.121,-0.75304,0.088224,-0.30325,0.030138,-0.18344,-0.42391,-0.68346,0.41421,0.19342,-0.35122,0.12754,-0.018502,-0.23462,0.4264,-0.26925,-0.42278,0.10107,-0.74249,0.92162,0.21808,-0.0082029,0.1599,-0.056062,0.16808,-0.64769,-0.30624,-0.52032,0.70532,-0.66644,0.55218,-0.3298,-0.34623,-0.54118,1.1441,-0.016701,-0.31572,-0.00025955,0.50495,-0.59407,0.037808,0.79002,-0.41861,-0.076324,-0.10719,0.27707,0.73478,-0.37897,0.52497,0.40921,0.24825,-0.2807,-0.10945,-0.72834,0.029877,-1.0131,-0.49523,-0.059113,0.35189,-0.46229,-0.62034,-0.10533,0.20729,-0.075486,-0.11152,0.18307,0.53793,0.1277,-0.097165,1.1965,0.26789,-0.40168,-0.21962,-0.18277,-0.12935,0.46107,-0.49241,-0.21245,0.072627,0.81775,-0.11749,0.1603,0.46227,-0.26268,-0.21136,0.35697,-0.49605,-0.050428,0.55221,-0.93173,0.64176,-0.11308,-0.22027,-0.16923,-0.044443,0.00065766,-0.1933,0.2828,-0.077684,0.57111,0.019239,-0.17919,-0.17888,0.46996,-0.44482,-0.94339,0.2642,0.091696,0.31357,0.78549,-0.54805,-0.46899,0.60034,-0.54619,0.2029,-0.30388,-0.39424,-0.27859,-0.089893,-0.050594,-0.24994,0.012266,0.035225,-0.19008,0.34519,0.083714,-0.69,-0.35098,-0.014302,0.33147,-0.15435,0.075879,-0.0076447,0.18251,0.63094,-0.20944,0.13416,-0.11635,-0.59654,-0.083782,-0.65664,-0.0013787,0.6657,0.34671,0.034461,0.2002,-0.18274,0.83233,0.12504,0.40008,-0.22417,0.20638,-0.41993,-0.071277,-0.22701,0.3699,0.67753,-0.44592,-0.1048,-0.45881,0.041627,0.18839,-0.29294,-0.016799,-0.5723,-0.60991,-0.0084193,0.53425,0.45048,0.14865,-0.53331,-0.056855,0.77482,0.38224,-0.17737,-0.018093,-0.2249,-0.0331,0.056248,-0.4431,0.041034,0.71233,0.13519,-0.22296,-0.26364,0.10501,-0.79535,-0.17719,-0.67305,0.29107,0.16429,0.21267,0.13088,0.10748,-0.3559,-0.70441,-0.075455,0.10426,0.064594,0.091816,-0.2488,-0.031308,0.85247,0.63422,-0.46083,-0.27113,0.21853,0.79892,0.49839,0.16436,0.21941,-0.4274,0.19145,-0.21029,0.23061,0.51737,0.11599,-0.154,-0.41434,-0.37345,0.42636,-0.10617,0.027381,-0.53046,-0.0084179,0.44444,-0.14843,-0.32741,-0.16299,0.23749,-0.44256,0.11204,0.94827,0.13645,0.43722,-0.023689,-0.40632,0.084519,-0.38877,-0.86979,-0.087513,0.26595,-0.6028,-0.018925,-0.43289,-0.28911,-0.13708,0.30431,1.0851,0.36128,0.69848,0.26487,-0.23094,0.02569,-0.45388,0.23467,0.1044,0.78214,0.42604,0.19945,0.61379,0.109,-0.24757,-0.73744,-0.24081,-0.49572,-0.056444,0.04996,0.22793,-0.4759,-0.03652,0.089885,-0.048519,0.27385,0.56787,-0.49747,0.022406,0.71922,0.0090059,-0.68964,-0.11878,0.59539,-0.66268,0.029234,11,342
AutoZone,0.30128,0.5924,0.72423,0.0085961,0.51305,-0.19599,0.11653,-0.43174,0.49742,-0.82401,-0.57969,0.17637,-0.082428,0.25499,-0.48708,0.3723,0.016272,-1.1574,0.31057,0.38575,0.38361,0.27722,0.36162,0.016722,0.14928,0.79223,-0.29563,-0.013824,-0.16323,0.81407,1.2737,0.40651,0.83069,-0.3612,-0.62932,0.2379,-0.54187,0.63622,0.4079,-0.14982,-0.1222,0.028739,0.21263,-0.60196,0.48544,-0.54082,-0.64766,-0.7882,-0.31939,0.067748,0.37336,-0.016425,0.86943,0.056638,0.05997,-0.92077,0.11641,0.58583,0.079785,0.12185,0.49882,-0.47816,-0.24438,0.04007,0.54485,-0.23149,0.45392,0.040224,0.13424,-0.050516,-0.36529,0.037386,0.75665,0.40578,-0.06945,0.31003,0.3979,0.53064,-0.1649,0.5321,-0.82228,0.41178,-0.02894,-0.1085,-0.18871,-0.45869,2.1348,0.28241,0.45057,-0.36536,-0.053926,-0.20805,-0.46857,-0.24737,0.81989,0.019728,-0.52057,0.58745,0.34979,0.34725,-0.092982,0.25988,-0.1254,0.51425,0.64176,-1.7641,-0.14175,0.0015789,-0.27614,0.20563,0.68797,-0.15853,-0.34619,-0.51249,-0.60041,1.0289,0.89529,0.38621,-0.18424,-0.013978,0.89981,-0.41729,0.51456,0.41272,-0.35133,0.7436,-0.11066,0.84776,0.65649,0.12465,0.40765,0.091655,-0.37201,-0.27513,0.035121,-0.34318,-0.05452,-0.21962,-1.1675,-0.077062,-0.5561,-0.058383,-0.36671,-0.35443,-0.32464,-0.068025,-0.11153,0.87385,-0.37615,-0.30487,-0.46688,-0.61156,-0.19175,-0.0077203,-0.30234,0.26049,0.53073,-0.21551,-0.16762,0.088211,-0.42659,0.52852,1.0529,-0.017107,0.31593,-0.44014,0.24803,0.43489,0.34914,-0.73914,0.087558,0.21613,-0.55878,-0.33823,-0.43511,0.21711,-0.12541,1.4197,-0.44462,-0.59415,0.060073,-0.060993,-0.8655,0.46962,0.43864,0.043327,0.071517,-0.68314,0.23878,0.24223,0.02978,0.26684,-0.043601,-0.11336,-0.68007,-0.068827,-0.73227,0.62633,0.19279,-1.0516,-0.16969,0.21865,-0.14257,0.15338,-0.075619,-0.55019,0.071862,0.018805,0.81272,0.65702,0.13752,0.21367,0.089725,0.90219,-0.24737,0.46548,0.47323,0.43051,-0.25581,-0.0074907,0.65658,-0.54681,0.11303,-0.37095,-0.16849,0.34432,0.58216,0.2929,-0.2793,-0.57036,0.14896,0.022861,0.87963,0.21388,0.33358,-0.22142,0.63782,0.52509,0.26457,0.43207,0.13425,-0.029671,-0.17871,0.2623,0.53432,-0.049263,0.28417,0.37378,0.3173,-0.6915,0.31139,-0.29835,-0.64264,-0.21144,0.85281,-0.0031456,-0.25243,-0.0057925,-1.0725,-0.64917,0.70237,-0.049529,-0.2522,-0.44693,0.39336,0.14579,-0.15512,0.15401,-0.094147,0.47486,-0.14126,0.59018,0.36057,0.71827,0.43119,-0.26812,-0.61616,-0.2567,0.021307,0.52643,-1.2889,-0.38432,0.51609,0.1176,-0.32437,0.9957,-0.4883,0.075668,-0.17071,-0.47516,-0.087894,0.19109,0.18296,0.15952,-0.24124,-0.61585,0.5524,-0.1754,-0.42841,0.022441,10,117
Broadcom,0.019482,0.2628,0.38439,-0.51589,-0.021641,0.44453,-0.25753,-0.14723,0.56662,-1.5572,0.31087,-0.688,0.054203,-0.24492,-0.10653,-0.50529,-0.89399,-0.37462,-0.06281,-0.55958,0.59985,0.028852,0.054323,-0.58644,-0.3909,-0.63543,-0.091009,-0.1673,0.2503,0.13116,-0.10622,-0.61514,0.31028,0.45012,-0.3995,0.50165,0.20576,-0.013841,-2.7985e-05,-0.54455,-0.037214,-0.016066,0.20616,0.36825,-0.33239,0.38017,0.086984,-0.43417,-1.1658,-0.14908,-0.5967,-0.017827,0.24296,-0.39652,-0.043634,-0.23277,-0.22196,-0.22806,0.13225,-0.2491,-0.65744,0.073761,0.40148,0.42035,0.065304,-0.02969,-0.2583,0.074574,-0.63211,-0.44095,0.33849,0.14106,0.95542,0.7567,0.22219,-0.20534,-0.046776,0.15596,0.27613,-0.38019,-0.33731,-0.040605,0.32706,-0.14266,-0.37149,0.50144,1.0776,-0.70718,-0.017452,-0.13087,-0.49377,-0.065469,-0.58335,-0.089838,0.94891,0.19284,-0.15128,-0.089605,0.55179,1.158,-0.84147,-0.0013538,0.22491,-0.027426,-0.68831,-1.8529,-0.30183,0.6575,0.20119,-0.024302,-0.62389,0.47183,0.38602,0.11045,-0.20714,-0.65761,-0.14075,0.14398,-0.008534,-0.21621,0.38451,-0.60571,0.49069,-0.63992,0.09314,0.41428,0.073649,0.47186,0.33735,-0.65191,-0.44851,0.083294,-0.83759,-0.35566,-0.52378,-0.69191,0.54069,0.1753,-0.13943,0.091366,0.22475,-0.27462,-0.2528,0.31524,0.12424,0.77683,0.2676,-0.30562,-0.045209,-0.51816,0.43739,-0.78382,0.16297,0.061903,0.44292,-0.043078,0.32845,0.73623,0.67363,0.30931,0.089498,-0.11066,-0.032867,0.40649,-0.36868,0.29754,0.91262,-0.42015,-0.52295,0.13907,0.31718,0.56375,-0.64496,0.05714,0.0074119,0.26594,-0.30571,-0.12098,-0.37829,0.25695,-0.076018,-0.13783,0.33088,0.29282,0.38515,-0.019106,-0.075209,1.0284,0.18455,-0.34664,0.24866,0.004038,-0.49916,0.024716,0.19766,-0.40316,-0.74347,-0.50205,0.70283,-0.11969,0.11767,-0.60359,-0.57885,-0.46517,0.12858,0.5645,-0.29973,0.41448,-0.43624,0.047206,-0.57443,0.15737,0.28486,-0.099795,-0.52762,-0.74562,-0.63575,-0.27315,-0.57506,0.85524,-0.30192,-1.2467,-0.30933,0.29466,0.22322,-1.0215,0.21874,-0.7411,-0.36396,-0.025077,-0.53047,-0.42371,0.91047,0.545,-0.093336,0.20962,0.64206,0.075881,-0.39559,0.72281,0.32801,0.19642,-0.22657,0.28905,-0.14817,-0.24222,0.20447,-0.33473,0.90736,-0.12978,0.71176,0.47243,-0.39133,0.055243,0.68578,-1.2728,-0.5466,0.58872,-0.4104,-0.30427,-0.3794,0.012019,0.17999,0.073545,-0.75168,-0.021854,-0.28923,-0.35059,-0.55494,-0.45713,-0.32902,0.54829,-0.3116,0.83823,-0.12932,0.22486,0.11005,-0.41232,0.97383,0.26049,-0.23544,0.26703,-0.15474,0.21996,-0.20577,-0.062127,-0.19803,-0.16978,0.36348,-0.29992,-0.32669,0.22108,0.33728,-0.98438,0.42934,-0.31244,0.36749,-0.0050549,-0.25487,0.6029,11,487
Hershey,0.53768,-0.090043,0.20134,-0.22338,0.37788,0.13027,-0.19931,-0.23478,0.58239,-0.25338,-0.39516,-0.54066,-0.052202,0.3405,0.37784,-0.23693,0.12695,0.055381,0.17104,0.43364,0.60335,0.19547,0.10775,-0.125,-0.15311,-0.46016,-0.26469,0.32991,0.19443,0.070273,0.3179,0.01864,-0.38721,0.38426,0.17275,0.018442,-0.26646,-0.14764,-0.27539,0.43075,0.027226,0.38312,0.041833,0.035432,0.20817,0.51063,-0.32508,-0.38807,0.1316,-0.47147,-0.37656,-0.081573,0.38694,0.00049507,0.26285,-0.57788,0.34761,0.15467,0.16312,0.2578,-0.091338,0.58366,0.13916,-0.05337,-0.34849,-0.064468,-0.48689,0.29516,-0.58118,-0.043519,-0.0019916,0.5313,0.067646,-0.46124,0.17791,0.33342,0.11712,0.44961,0.14992,0.12864,0.15939,0.25593,0.40347,-0.16257,-0.18566,-0.64005,1.5181,0.45908,-0.0049063,-0.41119,-0.31037,-0.29243,-0.09537,-1.3475,0.26091,0.22873,-0.062304,-0.84956,0.41722,-0.042287,0.54912,-0.14279,-0.08819,0.26257,0.19575,-1.4096,0.82758,-0.017461,-0.25832,-0.3938,-0.31799,0.44822,-0.62835,-0.4834,0.14339,-0.44939,0.56686,0.048765,0.047477,0.34932,0.12693,-0.53885,0.51145,0.67222,-0.63333,0.13424,0.11149,0.75397,-0.090061,0.39643,0.37932,-0.57791,0.16034,-0.27838,-0.29449,-0.071328,0.37383,0.16744,0.11616,-0.83146,-1.193,0.19186,0.50844,0.26188,-0.45008,-0.75953,-0.044581,0.3308,0.0358,-0.5602,0.45197,-0.60079,0.085599,0.32737,-0.52852,-0.061583,0.041212,0.16414,-0.19281,0.2821,0.025017,1.1254,-0.12644,-0.29018,0.13578,0.27421,-0.58511,-0.12654,0.27383,0.048163,0.54745,0.013077,-0.35881,0.18575,0.57862,-0.55525,0.58556,-0.1001,-0.25977,0.70748,-0.0065183,-0.28723,0.40344,-0.3373,0.033828,-0.17955,0.011327,0.039977,-0.044013,0.7883,-0.39373,-0.35481,0.051388,-0.088316,-0.46372,0.19421,0.16295,0.057261,0.31446,-0.28641,-0.32137,-0.63565,-0.32913,-0.28547,-0.26205,-0.21238,0.058143,0.0022248,0.31625,-0.15683,0.19518,0.54483,-0.22913,0.24143,-0.58428,-0.63186,-0.33593,-0.77893,0.1433,-0.0063492,-0.098272,0.34974,-0.28112,-0.11791,-0.022317,0.28829,-0.18398,-0.11436,0.085585,-0.022603,-0.34233,-0.36978,-0.20324,-0.23723,-0.88976,-0.26949,-0.22299,-0.1712,-0.15688,-0.10086,0.17288,-0.30441,-0.38343,0.069179,-0.093339,-0.31734,0.2769,0.47727,0.14192,-0.0032867,-0.70533,0.29622,0.15699,0.19017,0.53564,-0.42665,-0.47776,-0.00037392,-0.6411,-0.011456,-0.29723,-0.27886,-0.025715,-0.20937,-0.54638,0.29806,-0.10161,-0.19317,-1.0158,0.11286,-1.5613,-0.12409,-0.019533,0.54422,-0.48473,0.53129,0.22525,0.26368,-0.39231,-0.45589,-0.61521,-0.043326,0.062342,0.15989,0.14834,0.19596,-0.077423,0.11528,-0.18588,0.10604,0.13381,0.28211,0.28036,0.057785,0.20625,-0.54876,-0.046827,-0.24508,-0.51858,0.661,9,1984
Dover,-0.067272,-0.20027,-0.45254,-0.47969,0.49229,-0.29886,-0.50477,0.33145,0.42579,-0.028428,-1.015,-0.24169,-0.29393,0.18826,0.071691,-0.25334,0.28642,0.44164,0.34691,-0.101,-0.23951,0.10955,0.080943,-0.26033,0.10344,-0.33114,0.13238,-0.2183,0.014367,0.18668,0.36178,0.16421,0.11994,-0.11298,0.032069,0.41056,-0.1446,0.41996,-0.34438,0.42557,-0.53828,0.018014,0.22485,-0.2881,0.63182,-0.029965,0.21436,-0.40932,0.36601,0.31891,-0.32376,-0.59084,0.31891,0.14787,0.14465,-0.44496,0.18738,-0.16645,-0.021974,0.17664,-0.51004,-0.045839,-0.15258,-0.1004,0.11868,0.3675,0.41665,0.1171,0.3976,-0.30673,-0.76832,-0.23491,-0.36745,-0.14184,0.17461,-0.45534,-0.4498,0.35944,-0.45675,0.17924,0.3208,-0.14162,0.2701,-0.27385,-0.059358,0.10312,1.7229,0.34135,-0.44546,-0.4168,-0.39392,0.16305,-0.17225,-0.99903,0.19127,0.2702,0.2607,-0.064694,0.36131,0.38953,-0.39686,-0.11032,-0.4901,0.81587,-0.28072,-1.1484,-0.23386,-0.054135,-0.39807,-0.15729,0.063914,0.13938,0.55525,-0.27668,0.18959,-0.052491,0.47038,0.034734,0.18931,0.55989,0.088236,0.27118,-0.35873,0.4889,0.11133,0.021799,0.097937,0.83041,-0.045789,0.049909,0.43584,-0.69969,0.24788,-0.17972,-0.083364,0.30829,-0.059043,-0.10835,-0.28754,-0.56067,-0.62309,-0.52595,0.28344,0.28999,-0.17758,-0.43181,-0.11811,-0.009932,-0.47701,-0.58606,0.24154,-0.6198,-0.11019,0.10068,0.6435,0.12238,0.14645,0.18504,0.17979,-0.15642,-0.010772,-0.033839,0.25688,0.43778,0.31679,-0.30626,0.28441,0.42927,-0.23161,0.55003,-0.48129,0.29924,0.1142,-0.10255,0.19436,-0.24297,0.32568,0.59629,-0.15729,0.68855,-0.20367,0.00026391,-0.47872,0.13019,0.075701,-0.25359,-0.047964,-0.415,-0.62591,0.35549,-0.22144,0.71702,0.70658,-0.22488,-0.14653,0.0059495,0.062529,0.32471,0.37225,-0.020683,0.37757,-0.17182,0.70703,-0.66092,-0.51773,-0.10773,-0.34884,0.074636,-0.25311,0.022914,0.70597,0.26015,-0.11757,0.31585,-0.54543,0.093798,0.077521,0.022793,0.74551,0.65834,0.12687,-0.47199,-0.15944,-0.69021,0.15699,-0.028597,-0.37348,-0.46062,0.066535,-0.36563,-0.33819,0.6237,0.34907,0.011146,-0.18577,-0.30758,-0.29148,-0.24375,-0.087636,0.38088,0.34241,0.010468,0.45322,-0.23353,-0.2772,-0.64329,0.10995,0.19894,0.27797,-0.89838,0.14614,-0.19754,0.40788,-0.24558,0.23057,-0.0086954,-0.3336,-0.084748,-0.066972,-0.075276,-0.0094858,-0.12287,-0.38973,0.64228,-0.0019606,-0.65401,0.0028933,-0.14689,-0.76089,-0.011862,-0.76814,0.32651,0.30067,-0.085281,0.15876,0.14637,0.4289,-0.36599,-0.12148,-0.41416,-0.09162,-0.50468,-0.34424,0.21961,-0.17208,-0.034625,0.54408,-0.19631,-0.089443,-0.19091,0.060496,-0.12819,-0.53488,-0.079883,0.31459,-0.29406,0.57032,-0.19416,-0.38943,-0.13645,4,798
Citigroup,-0.47283,0.67499,0.033591,0.32335,0.59823,0.30221,-0.83499,0.15267,-0.32286,-0.31517,-0.57165,-0.75654,-0.40505,0.75106,-0.1524,0.19084,-0.31594,-0.49449,-0.21581,0.086646,0.57406,0.75373,-0.11534,-0.5534,0.69222,0.51081,-0.41883,0.54369,-0.38913,0.46091,0.14294,-0.58303,0.86735,-0.014721,-0.65778,0.12639,0.0091923,-0.10262,-0.24144,-0.26573,0.31158,-0.20948,-0.21618,-0.23622,0.0067847,0.20457,-0.12455,-0.72955,0.16426,0.4088,-0.26357,0.019304,-0.59429,0.50071,-0.34331,0.13832,-0.26081,0.58892,-0.67216,-0.37497,-0.17887,-0.17605,-0.15872,-0.062995,0.17616,0.1341,-0.31849,0.90558,-0.31257,-0.34945,0.29809,-0.2887,-0.17986,0.41447,-0.33566,-0.070919,0.066178,0.32468,0.28115,-0.23976,-0.36239,-0.11852,0.29056,0.60115,-0.4773,0.43711,1.0316,-0.38675,-0.20393,-0.072055,0.046497,0.18662,0.3133,-0.95347,0.67781,0.38357,-0.10572,-0.086494,0.59579,-0.14438,0.5809,0.18964,-0.68762,0.2095,-0.11744,-1.5764,-0.04988,0.079945,-0.17073,0.5492,0.67265,0.21391,0.40551,-0.38502,-0.38087,0.40439,0.44203,-0.42066,0.28676,-0.41493,-0.3335,0.19904,0.054645,0.035522,-0.26303,-0.0036556,0.54818,0.030305,0.4486,0.056175,-0.10638,0.19576,0.49386,-0.60534,-0.072578,0.13664,-0.38952,-0.49524,-0.5593,-0.3703,0.37294,-0.71061,-0.18169,-0.53539,0.28106,0.22153,1.165,0.62276,-0.22976,-0.11016,0.54392,-0.33504,0.42335,0.08585,-0.19976,0.48731,-0.18657,1.2263,0.23267,-0.10668,0.013737,0.12275,0.6717,-0.0014798,-0.20454,-0.23678,0.012587,-0.55978,-0.17551,-0.34459,0.43683,-0.23949,-0.27605,0.44191,-0.03156,0.13053,0.35863,1.0298,-0.087869,-0.39566,0.26988,-0.48243,0.12631,0.068496,0.43036,0.33087,0.28486,-0.090473,-0.30929,0.15229,-0.26904,-0.71597,-0.11139,-0.8343,0.12314,-0.24103,0.37178,0.044824,0.49186,0.153,-0.29106,-0.89157,0.032391,-0.18703,-0.037664,0.04399,0.70725,0.0084088,0.11488,0.10175,-0.067354,0.82913,0.45244,0.67632,-0.050679,-0.085662,0.95763,-0.5541,0.46786,0.20208,-0.83153,0.23773,0.10414,0.75116,0.12105,-0.723,-0.31664,0.064166,0.27141,-0.43144,0.081795,0.45886,0.41845,0.033425,-0.4918,0.077105,0.26565,-0.32498,-0.28004,0.022644,0.25653,-0.073093,0.26626,-0.088283,0.39668,-0.39868,0.47395,0.24846,0.13373,-0.59284,0.55412,0.11315,-0.16506,0.07073,0.57412,-1.4084,-0.25707,-0.4787,0.15571,-0.69507,-0.10228,-0.27522,-0.6403,0.13861,0.53002,-0.95645,0.080089,-0.21648,-0.81754,0.58893,-0.96222,-0.45478,0.60804,1.1417,-0.28554,0.60915,0.2283,-0.042743,0.53766,-0.51,-0.65927,-0.49495,-0.10873,1.0512,0.36284,0.37768,0.021272,0.46569,-0.79681,0.5708,0.11182,1.0085,-0.69101,-0.22154,0.41961,-0.66711,-0.32507,0.19088,-0.97064,0.72572,1,1833
Abbott,-0.055282,0.36204,0.30834,-0.40878,0.099277,0.45648,-0.1407,0.46984,0.39631,-0.18558,0.10697,-0.24387,-0.17611,-0.11505,0.68037,-0.017407,0.69561,-0.17821,-0.10456,-0.4397,0.73645,0.090353,-0.23782,-0.87705,0.065638,0.058448,-0.49987,-0.30086,-0.28586,0.55017,0.20608,-0.13229,0.23919,0.36625,-0.013403,-0.078947,-0.24218,0.14379,-0.59992,0.51285,0.80568,0.11388,0.07145,-0.40617,0.847,0.46345,0.033401,0.28831,0.14664,-0.12725,0.028505,0.37508,-0.067552,0.12348,0.13158,0.22091,-0.19022,0.042081,0.45853,-0.24155,-0.7764,0.49961,0.80388,0.03929,0.53124,0.061009,-0.47578,0.085257,-0.6458,-0.41025,-0.14448,-0.25428,0.075119,0.60533,0.45215,-0.061036,0.016208,0.32324,-0.060281,-0.55436,0.59958,0.39456,0.1739,0.64045,-0.38233,0.028134,1.5676,-0.53072,-0.24813,0.18826,-0.41193,0.32908,-0.098362,-0.41156,0.71697,-0.08062,0.37575,-0.16423,-0.3534,0.45661,0.26393,-0.1974,-0.43453,0.0054372,0.040907,-1.1464,0.62621,-0.70413,-0.31241,0.37106,-0.032972,0.34833,0.15793,-0.21724,-0.080314,-0.05362,0.46776,-0.23734,0.16529,0.45987,0.25219,-0.17051,0.43067,0.22319,0.23135,0.067932,0.28659,0.23162,-0.086563,-0.2039,-0.30381,-0.38627,0.16918,-0.72545,0.29564,-0.80206,-0.090733,-0.16637,-0.17445,-0.8403,-0.37272,-0.70556,-0.30446,0.045141,-0.13637,0.46245,0.72107,0.29265,0.39129,-0.11555,0.70938,-0.47192,0.076695,-0.33456,0.6229,-0.10666,-0.036932,-0.41677,-0.45109,0.26356,0.32015,-0.00062371,-0.011006,0.30122,0.81955,-0.10129,0.3947,0.81012,-0.19331,0.08879,0.092029,0.059526,0.026674,0.38241,0.22158,-0.036868,0.014457,0.10446,0.047166,0.65939,-0.066678,0.31475,-0.1787,0.82699,0.53875,0.12231,0.1231,-0.024672,0.034188,-0.44031,-0.40411,0.19391,0.15626,-0.66413,-0.055433,0.32629,0.30481,0.23808,0.63356,-0.23311,-0.0048961,-0.16818,0.016344,-0.089792,0.054802,0.094903,-0.24476,-0.026344,0.034941,0.23035,-0.19162,0.23202,0.60477,0.52567,-0.15993,-0.58565,-0.10653,0.28148,0.46452,0.66927,-0.53367,0.68266,-0.0019367,-0.20657,0.01827,0.60154,-0.43099,-0.56284,-0.51826,0.034387,0.11756,-0.29899,0.53195,-0.86753,-0.62935,-0.41702,-0.016699,0.075973,-0.21893,0.083711,-0.42928,-0.50328,0.25992,-0.39029,-0.08409,0.38289,0.18038,0.22356,-0.20475,-0.22009,0.757,0.31221,-0.083639,-0.46331,0.38461,-0.96763,-0.4693,-0.25049,-0.73965,-0.15345,0.17815,-0.035871,0.21531,0.2943,-0.0913,-0.57817,-0.034494,-0.23124,-0.22817,0.073005,-0.4257,0.11795,-0.20223,0.25295,0.17723,0.00028572,-0.018006,0.31807,-0.054428,-0.019605,-0.41731,0.32203,0.16272,0.48642,-0.57269,0.27282,-0.25147,0.37406,-0.85246,-0.2882,0.24817,-0.083404,0.22877,0.39566,-0.057126,-0.25596,-0.25598,-0.24941,0.10858,-0.10186,6,593
Equifax,-1.2556,0.14607,-1.0341,-0.26487,1.1207,0.50891,-0.27015,-0.6117,-0.13154,-0.2387,1.1943,-0.022716,-0.29532,0.072187,-0.26189,-0.22025,-0.22727,-0.78278,-0.57545,-0.0021962,0.40979,0.015388,0.74548,-0.12922,0.14297,-0.20438,0.18394,-0.099053,-0.43977,-0.079318,0.62546,0.31733,0.84086,0.1753,0.16891,0.49402,-0.55316,-0.081314,0.44964,0.12631,-0.10553,-0.6143,-0.21817,-0.52357,1.012,-0.33024,-0.017267,0.058032,0.089995,0.46404,-0.015313,-0.11197,-0.0055638,-0.50528,-0.17433,-0.24186,-0.1453,0.33007,0.5224,0.20746,0.4087,0.044396,0.2508,0.15368,0.48195,0.54237,0.14512,-0.45986,-0.61477,0.16974,0.29851,0.35394,0.26869,-0.2136,0.47774,0.59814,0.089467,-0.42933,-0.1136,-0.11703,-0.18016,0.36546,0.114,0.16741,-0.47257,0.42984,1.0827,-0.37704,0.043131,-0.066654,-0.52974,-0.14111,0.23695,-0.20251,-0.12918,-0.96742,-0.52576,0.31936,0.071566,-0.30378,-0.21478,0.056376,-0.033959,0.32355,-0.87521,-1.423,-0.019439,0.838,-0.1164,-0.41844,0.59122,0.51576,-0.62172,0.061782,0.30814,0.75669,0.45097,0.62393,0.46512,-0.27961,-0.0047866,-0.40584,0.20286,0.76314,-0.097189,0.33894,0.12498,0.63988,0.040563,-0.32608,0.59185,-0.22572,-0.43717,0.47191,0.87427,0.71069,-0.071468,-0.27348,0.18082,-0.70823,0.15553,0.51604,0.26919,-0.29585,0.18848,0.24324,0.13793,0.88977,-0.92688,0.31873,0.29296,0.452,0.31339,-0.54406,0.52874,0.19567,-0.10983,0.56818,0.017564,0.73379,0.11268,-0.29449,0.60999,-0.29125,0.47011,0.23264,-0.5079,0.51638,-0.55817,-0.086391,-0.11211,-0.12245,0.63007,-0.050589,0.21711,-0.61806,0.96287,-0.056727,-0.70092,-0.19742,0.17252,0.50924,-0.35992,-0.066861,0.3437,0.44348,-0.28529,-0.19254,-0.67559,-0.19374,0.21228,-0.1957,0.52108,0.22447,0.057525,0.38864,0.53903,0.2795,0.69696,0.51501,0.16108,-0.024912,-0.078848,0.74566,-0.59646,-0.17786,-0.15532,1.026,0.24682,0.22307,0.82223,0.61602,-0.59295,0.90945,-0.48886,-0.21368,-0.32314,-0.21544,0.72702,-0.068312,-0.39548,-0.44363,0.21054,0.75784,-1.0284,-0.1546,-0.10177,-0.4226,0.43326,-0.36559,0.67905,0.4371,-0.083552,0.24529,0.27094,-0.46438,0.27515,-1.2816,1.0921,-0.082288,0.6674,-0.012399,0.42207,0.18787,-0.08717,-0.43355,0.092701,-0.50209,0.57636,0.099968,0.62579,-0.32982,-0.72857,-1.0642,0.84185,-0.42761,-0.3219,-0.34781,-0.027954,-0.029499,0.60733,-0.16339,0.24944,0.21588,0.56544,-0.59384,-0.60491,0.46471,-0.9294,-0.18809,-0.49009,0.042187,0.86261,-0.10316,0.54349,0.042523,0.085657,-0.29095,0.29847,-0.58111,-0.29656,-0.020394,-0.036248,0.73791,-0.27419,0.74254,-0.4639,-0.41973,-0.022488,-0.035691,-0.18514,0.2473,0.49847,0.34294,0.063674,-0.77702,0.50323,0.5809,0.074762,0.41342,4,345
CVS,-0.23346,-0.591,-0.24353,-0.50973,0.69647,0.55746,0.22698,-0.36339,-0.037088,0.10288,-0.59668,-0.18219,-0.34148,-0.024948,0.32586,-0.16991,-0.46797,1.0184,0.27231,0.4618,0.31613,0.30459,0.19264,0.29381,-0.6016,0.43508,0.027358,-0.31264,1.0157,-0.077974,-0.37232,-0.34465,0.44001,-0.696,-0.56945,0.91118,-0.18977,-0.29831,-0.17261,0.21064,-0.35463,-0.15655,0.42069,0.4435,-0.67672,-0.086336,-0.17691,-0.16026,-0.47539,-0.70245,0.14806,-0.017978,-0.19591,-0.17278,0.60444,-0.21876,-0.064061,-0.28248,-0.1635,-0.54,-0.20941,-0.034076,-0.22391,-0.029439,1.0004,0.51997,0.5106,0.43786,0.04865,0.50517,0.4618,-0.43751,0.2687,0.64668,0.99742,0.53958,-0.72887,-0.12462,-0.135,0.089973,-0.11465,0.048666,0.083021,0.50845,-1.2376,0.16849,1.5973,-1.2108,0.029494,0.24412,-0.093664,-0.019276,0.59093,-0.49026,0.35657,0.47557,0.38795,-0.27923,-0.11167,-0.029159,-0.56635,0.12164,-0.053972,-0.26726,-0.033369,-1.0306,0.89651,0.44861,-0.031366,-0.48774,0.26841,-0.19686,-0.20382,0.21157,-0.76022,-0.10453,0.67028,-0.33121,0.36553,0.50132,0.46851,-0.13268,-0.10179,-0.073404,-0.031893,-0.23556,-0.41716,0.035577,0.3425,-0.03733,0.12443,0.006386,-0.12398,-0.00064581,-0.03813,0.26212,0.045195,-0.45368,-0.23784,0.29506,-0.47483,-0.31477,0.01598,0.41081,-0.23267,0.24723,0.39731,0.79768,-0.4503,0.0044196,0.31009,-0.27924,-0.073828,-0.447,0.22741,0.023808,0.36423,0.10217,0.42534,0.54493,-0.17259,-0.10971,0.53193,0.27461,0.25758,0.30737,-0.095004,-0.083951,-0.25026,-0.34596,0.28387,-0.14047,-0.39085,0.15176,-0.50003,0.1773,0.064365,0.049476,0.34208,-0.095873,0.60582,-0.17439,-0.21596,-0.095426,-0.14346,0.29464,0.18528,0.25338,-0.46831,0.21598,-0.75727,0.24883,-0.049839,0.079025,0.45766,0.21667,0.17464,-0.32229,0.9619,-0.093207,-0.25765,-0.70595,-0.35519,-0.026562,-0.47338,-0.1364,-0.17843,0.56207,-0.35983,0.64264,0.1711,-0.45433,-0.098012,-0.093086,-0.85857,-0.96485,0.0090882,-0.16116,-0.19596,-0.27371,-0.025253,-0.098293,-0.063247,0.60574,-0.082263,0.052813,0.29524,-0.23561,0.80132,-0.34161,0.59177,0.03199,0.56979,-0.28504,-0.27942,-0.75342,0.24397,0.13181,0.81631,0.3488,-0.15303,0.50344,0.017511,-0.27583,0.41521,0.12152,0.23683,0.31343,0.52061,-0.044473,0.45585,0.40062,0.63772,-0.48487,0.91886,-0.83917,-0.46592,0.062015,-0.42092,-0.94133,-0.24568,-0.23469,0.3896,-0.69549,-0.10806,0.40502,0.18495,0.33206,0.30672,-0.40597,-0.24114,0.035243,-0.13653,0.51556,0.1971,-0.30988,0.25749,0.0043493,-0.019298,-0.19133,-0.8479,0.053129,0.036283,0.54605,-0.422,-0.47531,-0.39493,-0.31596,0.90099,-0.73544,0.42734,0.087478,-0.179,0.26979,-0.33175,0.15172,-0.093793,-0.22112,-0.34826,0.61889,9,1006
NRG,-0.37167,-0.35773,0.41514,-0.30483,0.13772,0.5301,-0.13669,0.33876,-0.18384,-1.6703,0.028746,0.66082,-0.93989,0.23931,-0.15853,0.48668,0.36412,0.33726,0.38578,-0.064201,-0.7978,-0.19096,0.3815,-0.8943,0.7175,0.38791,-0.40048,0.36505,0.75544,0.28755,0.15994,-0.97998,0.22521,0.66771,0.32569,0.41904,-0.10982,0.55234,-0.65113,-0.51466,-0.14848,0.33479,-0.19573,-0.28559,-0.32114,0.036391,-0.26906,0.1811,-0.4946,-0.3045,-0.43844,0.034206,0.070461,0.86087,0.10794,0.010487,0.067849,0.12022,0.025107,0.044772,-0.47657,-0.22921,-0.14986,0.17254,0.13068,-0.4592,-0.62849,-0.2827,-0.19149,-0.61935,-0.28909,-0.12705,-0.24932,-0.43739,0.48005,0.062969,-0.84559,0.070824,-0.033136,-0.34296,-0.011846,-0.12265,0.04042,0.048656,-0.20822,0.30289,0.58628,-0.4152,-0.045285,-0.085737,0.067311,-0.55706,0.62645,-0.16446,-0.29759,0.10617,0.27201,-0.60985,-0.45186,0.43094,-0.28376,-0.095637,-0.22142,-0.026159,-0.54821,-1.3247,0.5798,0.40362,-0.2937,0.59809,0.41336,-0.4088,-0.45465,-0.21013,-0.41362,0.39114,0.3549,0.51759,0.15435,-0.35834,0.46719,0.37618,-0.20504,0.87125,-0.2452,0.32395,0.44628,-1.1621,-0.2776,0.15915,-0.064012,-0.31938,-0.38138,-0.95909,1.2616,-0.73874,0.067793,0.084254,0.41999,-0.8362,-0.62329,-0.74666,0.18489,-0.083604,0.20486,0.40766,0.86923,0.37551,-0.43176,-1.2021,0.11374,-0.15068,-0.53246,0.29248,-0.18035,-0.49667,-0.10418,0.1129,0.38118,0.61393,0.51141,0.091982,0.23958,0.56341,-0.059764,0.43776,-0.001273,-0.29087,-0.52077,-0.38173,-0.106,-0.30858,-0.47856,-0.49172,0.24443,-0.19681,0.34054,0.025774,-0.16974,-0.011019,-0.17717,0.39865,0.06926,-0.30911,0.50242,-0.21035,-0.011551,0.46017,0.41873,-0.10787,0.34184,0.2171,0.043447,-0.5904,-0.55827,0.068722,0.16335,0.15809,1.2905,-0.091448,0.16835,-0.14023,0.026705,-0.089812,-0.033804,-0.073644,0.6404,0.12064,-0.57972,-0.1814,-0.78481,-0.32126,-0.00052013,0.70601,-0.57141,-0.42332,0.32444,-0.072648,-0.10937,-0.14996,-0.22657,-0.52047,-0.13024,0.0030419,-0.21139,0.54713,-0.19227,0.073542,0.18183,-0.039119,-0.23341,-0.73999,-0.83252,0.48334,0.055084,0.35404,0.11555,0.25041,-0.45982,0.24246,0.15874,-0.43521,0.077667,0.19646,-0.47091,-0.62497,-0.035109,0.07308,0.1573,-0.58525,0.35296,0.32177,0.01679,-0.37896,-0.13799,-0.87246,-0.20027,0.11206,-0.40951,-0.60768,-0.54347,0.12723,-0.30141,-0.3022,-0.3692,0.047601,-0.33882,0.10231,-0.66984,0.3632,-0.051607,0.23788,0.44865,-0.26819,0.034394,0.23313,0.68973,-0.37148,-0.048458,-0.90688,-0.24022,-0.0305,0.21518,0.95526,0.042492,0.36233,-0.04252,0.077071,0.17391,0.62777,-0.13131,0.060804,1.1882,-0.31889,-1.1903,0.012883,0.19786,0.3565,-0.31328,-0.036812,5,252
Chevron,-0.11415,-0.042029,0.19163,0.1399,0.1249,-0.32944,-0.12561,0.41036,-0.53997,-0.79361,-0.12556,-0.094458,-0.036877,-0.088835,-0.21296,-0.12857,0.06181,0.59217,-0.21474,-0.52879,-0.25103,0.71209,0.48761,0.31695,0.14658,0.050943,-0.12731,0.29665,-0.19402,0.16285,0.62453,-0.0083566,0.23771,-0.15163,0.079775,-0.42356,-0.24633,-0.11296,-0.025498,-0.098069,0.068141,0.46409,0.3205,-0.1501,0.43738,-0.53747,-0.4513,0.26957,0.32795,0.18792,0.68566,0.067656,0.28707,0.24863,0.54697,0.14598,-0.049706,0.20698,0.092114,-0.12222,-0.65381,-0.65654,0.34366,-0.17422,0.25392,0.022152,0.13823,0.0089077,0.51912,0.19561,-0.11411,-0.46944,-0.029618,0.14386,0.2144,0.191,-0.64242,-0.95515,-0.19418,-0.51071,0.042364,-0.2583,0.60257,0.68763,0.067881,-0.11193,1.3495,0.86961,0.50014,0.26056,0.78407,0.37658,0.20254,-0.35903,-0.072481,0.67607,-0.049207,0.44212,-0.37706,-0.36092,-0.52894,0.35269,-0.15987,0.66227,-0.6987,-1.4195,-0.18683,0.055459,0.17718,0.38275,-0.28328,0.33987,-0.11209,0.26444,-0.22154,-0.1821,0.29507,0.35639,-0.539,0.34005,0.16049,-0.31116,0.27817,0.038331,0.5281,0.18979,0.54134,0.32094,-0.30774,-0.072539,-0.016124,-0.55649,-0.052005,-0.068526,0.14271,-0.57262,-0.52536,-0.054392,-0.26345,-0.32374,-0.80932,0.54767,-0.20063,0.28453,-0.14848,0.28754,0.052876,-0.10733,-0.089123,-0.15865,-0.065157,-0.18437,-0.052918,0.10262,0.075659,-0.53926,-0.13355,0.36716,-0.26151,0.12345,-0.218,0.41787,0.051126,-0.09581,0.066932,0.13821,-0.23664,-0.51895,0.35194,0.017362,-0.6357,0.029118,-0.27987,-0.27175,-0.0025526,-0.34148,0.15834,0.28567,0.038014,0.098361,0.11474,-0.52278,-0.45337,-0.36837,-0.222,0.48482,-0.15495,-0.43439,-0.73619,-0.047506,0.072677,-0.17311,0.12451,-0.13342,0.32057,0.28862,0.25057,0.20925,0.43192,0.49276,0.086411,0.25569,-0.018019,0.53713,0.49088,-0.64513,0.89045,0.81656,-0.80137,-0.025686,-0.10051,1.252,0.36117,-0.095967,-0.13222,0.50788,-0.62863,0.084858,0.11768,0.14334,-0.31013,0.13002,0.038115,0.38934,0.073132,-0.28706,-0.25437,0.36331,-0.24386,0.063285,-0.4413,0.47624,0.34419,0.73512,0.1432,-0.877,-0.26444,-0.19328,0.65513,0.51984,-0.033063,-0.59596,0.027157,0.67887,-0.0896,-0.49249,0.34291,0.67125,0.68413,0.066141,0.43603,0.40293,0.11375,0.03859,-0.20383,0.079963,0.11455,0.72375,-0.064795,0.15088,0.48646,0.12314,-0.732,-0.055691,0.60136,0.78576,0.57026,-0.015787,-0.51718,-0.15992,-0.7377,-0.020331,0.15787,0.23475,-0.14405,-0.50897,-0.41069,-0.41083,0.3022,-0.56186,-0.032863,-0.14792,-0.39501,-0.062105,0.024902,0.42061,0.26455,0.85365,0.16859,0.14137,-0.43926,-0.055392,0.35403,-0.25702,-0.1119,-0.015157,-0.038781,0.85355,-0.34989,0.61739,3,1508
Medtronic,0.3334,0.81936,-0.011406,0.31871,-0.15762,-0.35273,-0.56435,-0.17891,0.58849,-0.96766,0.58686,-0.23478,0.5138,0.072121,0.69587,0.75847,0.016009,-0.39492,-0.53237,-0.12557,0.56315,0.44839,0.19349,-0.01031,-0.44267,-0.14841,-0.4359,-0.072458,0.51716,0.50247,0.49275,0.014825,0.12247,0.39205,0.73496,0.51345,0.23285,-0.55716,0.25678,0.49936,-0.85907,0.36828,-0.17106,-0.47896,0.074607,-0.31173,-0.19219,0.39567,0.20616,-0.25871,-0.11983,0.57503,-0.27436,-0.11017,-0.10994,-0.34321,-0.59014,0.18001,-0.74387,-0.69365,-0.86406,-0.095351,0.26659,-0.2976,0.12837,-0.59107,-0.11554,-0.48927,-0.54504,0.055018,0.31323,-0.28524,-0.93066,-0.064835,-0.13888,-0.066454,0.047802,-0.15188,-0.42794,-0.39043,0.40315,0.45321,-0.5134,0.48967,-0.69027,0.42484,1.6018,-0.41935,-0.23649,-0.26136,-0.42424,-0.39051,-0.43476,-0.66091,0.57655,0.28442,-0.22291,0.80484,-0.08955,0.082508,-0.056517,-0.36108,0.14844,0.13719,0.27521,-1.9313,-0.25245,0.70906,0.17482,-0.19984,0.3291,0.32249,0.073385,0.43949,0.34087,0.20708,0.74112,0.044842,-0.37699,0.24758,0.13041,-0.96991,0.69407,0.37883,-0.19793,-0.51399,0.24075,0.61203,0.36356,0.17345,-0.15147,-0.29577,-0.48802,0.076496,0.4244,-0.61137,0.15219,-0.16291,-0.43233,-0.45542,0.94001,-0.26813,-0.087022,0.032784,1.0161,0.093927,-0.49487,0.20187,0.044497,0.08025,-0.1418,-0.44768,0.32023,0.057387,0.18077,-0.56627,-0.25769,0.51451,0.72453,0.090765,0.06792,0.64714,0.71821,0.2316,0.13927,0.11695,0.22214,0.13507,-0.37576,0.04677,-0.17945,0.18895,0.034252,0.25078,0.30613,0.089543,0.16742,0.17802,-0.30388,0.44828,0.21135,0.014809,-0.030566,-0.14073,0.44737,-0.46173,0.54672,-0.20414,-0.59062,0.38088,-0.43776,-0.64735,0.34621,-0.50406,-0.42729,0.42662,-0.091052,0.32713,0.45582,0.13362,0.43422,0.080218,-0.086161,0.50344,-1.0299,0.02416,0.54503,-0.014428,0.091476,0.38262,-0.52333,0.11118,-0.58763,0.96388,-0.49027,0.57544,0.80373,-0.55285,0.3502,-0.24594,-0.11557,0.444,-0.0060951,0.33008,-0.4109,0.53024,0.3692,-0.71261,-0.26755,-0.59645,-0.29137,-0.22655,-0.29797,-0.53643,-0.44303,-0.65421,0.37822,0.43525,0.043163,-0.31812,-0.31165,-0.12722,-0.3754,0.42053,-0.046121,0.012915,0.22643,0.1721,-0.021852,0.091897,0.059617,0.23195,-0.061975,0.36251,-0.53744,-1.0627,0.0015792,0.020725,-0.67199,-0.17558,0.19312,-0.2096,-0.063606,-0.5974,0.17494,-0.15454,0.57497,-0.16351,-0.55378,0.53629,-0.81053,0.065498,0.29096,0.92636,0.55392,-0.070265,-0.51849,-0.25942,-0.18188,-0.4207,-0.15327,-0.62069,0.56697,0.69785,-0.52344,0.63777,-0.15371,-0.091524,-0.64322,0.11752,0.52186,-0.15915,0.093321,0.6785,0.11898,0.28098,0.18008,1.1914,-0.46635,-0.10168,6,210
